<?xml version="1.0"?>
<opencv_storage>
<opencv_ml_svm>
  <format>3</format>
  <svmType>C_SVC</svmType>
  <kernel>
    <type>LINEAR</type></kernel>
  <C>1.</C>
  <term_criteria><iterations>1000</iterations></term_criteria>
  <var_count>1764</var_count>
  <class_count>2</class_count>
  <class_labels type_id="opencv-matrix">
    <rows>2</rows>
    <cols>1</cols>
    <dt>i</dt>
    <data>
      -1 1</data></class_labels>
  <sv_total>1</sv_total>
  <support_vectors>
    <_>
      -8.25055595e-03 -1.70746185e-02 -2.23258194e-02 8.91610421e-03
      -1.01239569e-02 -7.61768501e-03 1.47216991e-02 -7.31213391e-03
      -5.90055063e-03 -5.92075437e-02 -6.41394779e-02 -5.93734235e-02
      -4.68392186e-02 1.01874105e-03 1.27352972e-03 6.22921344e-03
      1.89868622e-02 -1.31712863e-02 3.32104564e-02 -6.81357877e-03
      -1.27271807e-03 -3.80904339e-02 -6.66833743e-02 -6.84824074e-03
      2.88948733e-02 4.58567254e-02 4.30744998e-02 1.72069073e-02
      -2.37299176e-03 -1.24310041e-02 -4.77994159e-02 -4.25922908e-02
      -1.64716803e-02 -1.37074748e-02 1.06460154e-02 6.08144328e-03
      -3.87378670e-02 -3.04899029e-02 4.63216240e-03 8.81083682e-03
      6.74233511e-02 2.58132927e-02 1.75420232e-02 3.29906903e-02
      9.22468305e-03 -7.88390934e-02 -8.78395885e-02 -6.87362775e-02
      -5.70177510e-02 7.35418359e-03 -4.39377911e-02 -8.21816176e-03
      3.34645025e-02 -2.76291668e-02 3.07720341e-02 2.23695841e-02
      -1.15071759e-02 -1.47993425e-02 5.38705923e-02 4.58824113e-02
      3.65963914e-02 2.45644841e-02 2.04090886e-02 -1.60371568e-02
      2.46070069e-03 -4.52435166e-02 -7.28943199e-02 -5.77451102e-03
      -2.81723663e-02 1.12272217e-03 3.83304013e-03 9.99207143e-03
      -5.23105673e-02 1.11810779e-02 1.48383761e-02 6.36929180e-03
      4.49512489e-02 8.64838436e-03 4.26976644e-02 6.77695945e-02
      -8.71760119e-03 -1.03623919e-01 -2.75336150e-02 1.69216692e-02
      1.50122344e-02 4.16789576e-02 1.78427044e-02 3.96356806e-02
      4.90966216e-02 -2.89019700e-02 -1.83288031e-03 4.17993218e-02
      3.95131996e-03 -1.19475201e-02 3.33846994e-02 1.04845921e-02
      4.76993956e-02 5.92034459e-02 9.77033656e-03 -6.02946579e-02
      -7.53490604e-04 -4.50425199e-04 -2.83493120e-02 -1.48564912e-02
      -8.13728478e-03 1.94332749e-02 3.56960297e-02 -5.22927679e-02
      -8.86371285e-02 -1.94860306e-02 2.67859865e-02 3.34038325e-02
      3.00162211e-02 -1.09807830e-02 2.30977759e-02 3.37625816e-02
      -3.75162736e-02 -6.99344352e-02 2.47635110e-03 4.56380323e-02
      5.53596169e-02 9.83143374e-02 2.97673382e-02 5.32468446e-02
      4.91876900e-02 -1.48208719e-02 -7.33767450e-02 -2.84162927e-02
      2.39176210e-04 2.35320884e-03 1.76004022e-02 -1.57825705e-02
      1.31068937e-02 5.96773985e-04 -5.21341674e-02 -3.78389768e-02
      -2.55321665e-03 3.53263691e-02 3.45566496e-02 5.13682179e-02
      2.00401489e-02 6.11283854e-02 4.05759811e-02 3.54887284e-02
      -6.83935583e-02 -2.40907390e-02 2.91668507e-03 4.15769126e-03
      3.00987959e-02 2.19591912e-02 3.48635949e-02 8.20264220e-03
      -6.31913394e-02 3.33324410e-02 -9.63118728e-05 7.42483186e-03
      -2.47640815e-02 1.77093106e-03 1.46166226e-02 4.24031392e-02
      1.41066881e-02 1.04747918e-02 -4.63141166e-02 -3.82417105e-02
      1.35835903e-02 5.53258276e-03 2.47238576e-02 2.52515506e-02
      4.43124957e-02 -7.78212585e-03 1.63252987e-02 4.67920974e-02
      -1.65517689e-04 1.78518854e-02 -2.20641084e-02 2.40022652e-02
      2.37661265e-02 2.77583078e-02 -4.65377141e-03 3.98249477e-02
      1.62499808e-02 -9.80877504e-03 -2.27176677e-02 -5.05012721e-02
      -1.58636793e-02 -3.35435793e-02 -5.25461473e-02 -4.88898009e-02
      -8.74313526e-03 3.41887735e-02 1.62819233e-02 2.15105247e-03
      -7.80814001e-03 2.21719015e-02 2.80431528e-02 -3.10528604e-03
      1.11682974e-02 3.79573628e-02 3.78646739e-02 -2.90063955e-02
      -4.68362384e-02 -7.24409819e-02 -2.42519286e-02 -4.30719778e-02
      -3.86084244e-02 -3.28676105e-02 8.73266067e-03 6.75065070e-02
      3.12543102e-02 5.21753030e-03 -1.72135569e-02 3.44453845e-03
      -3.24817859e-02 -4.47510518e-02 -8.54688790e-03 6.19615167e-02
      -3.70469084e-03 -4.91188234e-03 1.61991976e-02 1.30924175e-03
      -3.05431448e-02 4.67008632e-03 -1.29933963e-02 -1.28701339e-02
      -1.15768518e-02 -2.06731148e-02 -1.97370984e-02 1.19288964e-02
      9.91669856e-03 -2.83395145e-02 -3.16854715e-02 -2.72178277e-02
      -2.12020371e-02 -2.18727179e-02 2.87550222e-02 1.39266327e-02
      6.39926828e-03 -1.63697358e-02 -3.01176924e-02 -2.40492281e-02
      -1.65297892e-02 -1.77661702e-02 3.91659662e-02 3.43683735e-02
      1.99244451e-02 1.40489796e-02 -1.49452442e-03 -2.49564908e-02
      -4.29647155e-02 -2.65842229e-02 1.07097412e-02 2.97663715e-02
      3.33441384e-02 -2.50522420e-02 -2.57956870e-02 -7.18429759e-02
      -8.36422816e-02 -7.91352689e-02 -2.33393181e-02 2.14290731e-02
      4.97337840e-02 5.64436540e-02 1.30088804e-02 -3.45614797e-04
      -4.26603667e-02 -5.98042533e-02 -6.88177720e-02 -3.64954583e-02
      -3.54782492e-02 -2.70807021e-03 2.80063022e-02 4.67061903e-03
      -6.54648850e-03 -3.49358246e-02 -5.41561209e-02 -5.73223718e-02
      -1.86630152e-02 5.16177900e-03 4.11436111e-02 6.92085475e-02
      5.71449921e-02 5.08325920e-02 1.53765818e-02 -3.60493385e-03
      -3.04695722e-02 -5.63680306e-02 -4.70697060e-02 3.12978178e-02
      4.74771149e-02 6.02946095e-02 6.82657724e-03 -2.17314716e-02
      7.48953503e-03 -1.64840724e-02 -1.54011669e-02 -6.54954836e-02
      -2.61300970e-02 -2.00900808e-02 3.58910002e-02 -2.25398410e-02
      -7.16862082e-02 -3.26406993e-02 -5.34866042e-02 -5.61747327e-02
      -6.07390814e-02 -2.01287568e-02 9.88303944e-02 9.03849751e-02
      5.62364496e-02 2.62675360e-02 3.81896012e-02 1.49464011e-02
      5.80389937e-03 -1.13409171e-02 3.49976644e-02 3.63078229e-02
      7.63718113e-02 3.26390937e-02 -1.10473251e-02 8.22684355e-03
      -4.94283661e-02 -3.51479575e-02 -3.06894053e-02 1.95178576e-02
      -2.87994947e-02 4.94561195e-02 4.10228670e-02 5.22310520e-03
      3.00856512e-02 -1.18071344e-02 -9.12688207e-03 -1.80432852e-02
      -2.84635145e-02 -6.64147586e-02 -4.00322713e-02 1.16391107e-03
      -3.53460287e-04 3.26634608e-02 -1.55400494e-02 -1.28665625e-03
      -8.43138248e-03 -7.31154606e-02 3.26987915e-02 6.44909590e-02
      6.09526522e-02 2.83985101e-02 6.19948655e-02 1.34493439e-02
      1.55933434e-02 2.35173255e-02 4.66535985e-02 1.40269222e-02
      1.74863636e-02 4.70130257e-02 4.20911536e-02 6.89965338e-02
      2.20223367e-02 2.33365912e-02 6.02921285e-03 4.06277627e-02
      -9.28774253e-02 -7.92677477e-02 -2.60537658e-02 -1.75874662e-02
      1.29910130e-02 -1.67688988e-02 2.58311536e-02 -2.00897269e-02
      -6.20216802e-02 -4.70009260e-02 -3.84839661e-02 9.98336705e-04
      6.46503503e-03 4.73721549e-02 2.09269188e-02 5.50991669e-02
      1.88001823e-02 1.09137557e-02 2.92584803e-02 4.77686059e-03
      7.54157593e-03 4.27940451e-02 8.11162964e-02 3.57150175e-02
      5.41643165e-02 1.50446733e-02 1.97031200e-02 2.31665093e-02
      6.21688664e-02 5.53353019e-02 5.35509177e-02 9.37387794e-02
      5.58631569e-02 9.26432312e-02 5.66619784e-02 2.73966081e-02
      -3.56107391e-02 -4.54244539e-02 -1.81089453e-02 -8.68840143e-03
      3.20705548e-02 1.84622034e-02 4.87489700e-02 2.46418659e-02
      -6.05853414e-03 9.13834665e-03 -5.89717403e-02 -3.48930545e-02
      -1.10753430e-02 3.15671205e-03 -9.74255672e-05 3.32451686e-02
      4.79393499e-03 1.85898263e-02 2.76904507e-03 6.58943085e-03
      1.37143331e-02 9.56556760e-03 3.23985852e-02 3.48472148e-02
      6.79065809e-02 4.51380797e-02 6.06786786e-03 1.30433803e-02
      -1.66529901e-02 1.78475995e-02 2.95029767e-02 8.37810151e-03
      2.13881209e-03 6.11664951e-02 4.79879007e-02 3.99420299e-02
      2.71235040e-04 -6.41480982e-02 -6.27387688e-02 -3.90690863e-02
      -2.98585929e-02 -4.69403565e-02 -1.88139118e-02 -3.00125964e-02
      -2.04889243e-03 4.85909954e-02 -1.09733893e-02 -5.80191575e-02
      -3.71803194e-02 -1.65676773e-02 -1.79789085e-02 -3.21363024e-02
      -1.88580081e-02 3.69325653e-02 -1.64166782e-02 -5.50874993e-02
      -4.47988138e-02 2.30282862e-02 -1.43352225e-02 -2.03176364e-02
      2.07021758e-02 1.69576593e-02 4.28624004e-02 5.71669117e-02
      -1.21637909e-02 -4.90785092e-02 -1.59507152e-02 -3.73719186e-02
      2.46807351e-03 1.36248143e-02 3.67643088e-02 7.67208785e-02
      2.60786768e-02 -4.37302282e-03 -2.39488073e-02 -5.99945001e-02
      -7.14937076e-02 -3.96273769e-02 -4.58786413e-02 -2.37412564e-02
      3.27150188e-02 4.16012183e-02 2.62542423e-02 1.44311124e-02
      -1.50840664e-02 -4.14761119e-02 -3.70075591e-02 -2.08390038e-02
      8.60758871e-03 4.76133563e-02 3.60009335e-02 -1.58511638e-03
      -2.75733769e-02 -6.66303635e-02 -6.27612546e-02 1.02650479e-03
      5.72667969e-03 3.33785862e-02 6.29438236e-02 3.45669985e-02
      2.31778957e-02 2.54927818e-02 -3.79389711e-02 -5.83013035e-02
      -2.14387686e-03 3.22675668e-02 3.30108181e-02 5.31220548e-02
      3.28056738e-02 3.21928710e-02 7.11297244e-03 5.33402618e-03
      -5.88392951e-02 -1.14747986e-01 -5.00009321e-02 -3.21636088e-02
      1.54445423e-02 5.42287454e-02 5.20738102e-02 4.20404896e-02
      9.47335456e-03 1.53897312e-02 -2.97453124e-02 -5.63406907e-02
      -4.35089320e-02 5.64854732e-03 1.01907374e-02 4.58261669e-02
      2.16481425e-02 1.22052273e-02 -7.65177906e-02 -9.56901535e-02
      -2.60433927e-02 -2.06560921e-02 -3.88206393e-02 3.27939279e-02
      4.78037931e-02 4.02504727e-02 3.17749754e-02 7.58084795e-03
      -3.98142003e-02 -1.24452012e-02 -6.82777353e-03 -2.56737671e-03
      1.69010572e-02 5.05432002e-02 3.18345912e-02 1.10567147e-02
      1.99841131e-02 -3.01561076e-02 -7.37697259e-02 -6.16448186e-02
      -2.55511366e-02 1.56636462e-02 1.98115092e-02 2.73112822e-02
      -3.21884034e-03 -2.34489748e-03 -6.59759045e-02 -7.30193779e-02
      -6.64906874e-02 -1.81807894e-02 3.21895406e-02 3.36881541e-02
      3.41739282e-02 1.99191701e-02 4.43474464e-02 -1.39200455e-02
      -3.59570980e-03 -5.18371491e-03 1.07068177e-02 2.76489351e-02
      2.92737521e-02 3.42788361e-02 4.76672361e-03 3.21504921e-02
      -5.15575558e-02 -3.09069119e-02 1.33506092e-03 3.62791196e-02
      -5.55482320e-03 -2.34195981e-02 3.31655815e-02 3.23798619e-02
      3.51595283e-02 -4.27404530e-02 -5.59012555e-02 -3.40888612e-02
      -1.79890078e-02 -4.20599952e-02 -4.03194055e-02 -4.75017913e-03
      4.76988927e-02 6.03131801e-02 -2.65022554e-02 -2.88954061e-02
      -4.29206118e-02 -4.60536592e-02 4.86080982e-02 4.13526110e-02
      5.39395660e-02 3.09025273e-02 6.70346320e-02 -7.79428054e-03
      3.45875672e-03 1.99033059e-02 6.78506419e-02 4.21879217e-02
      2.95195635e-02 4.44615260e-02 3.82519625e-02 8.67485553e-02
      1.53834103e-02 8.92005861e-03 -2.80876085e-02 2.72785593e-02
      -4.31260690e-02 -3.24646086e-02 -3.88109758e-02 1.37691004e-02
      6.81519508e-02 2.62739044e-03 1.86512675e-02 -2.00459044e-02
      -3.66482958e-02 -5.36561310e-02 -4.72481363e-02 -3.48635390e-02
      -2.49503627e-02 4.73023616e-02 1.16099548e-02 5.82850240e-02
      2.87382584e-02 -3.31145599e-02 5.17815351e-03 -1.07939551e-02
      2.25751270e-02 3.96093912e-02 7.71745890e-02 2.25772653e-02
      5.89090213e-02 7.72375381e-03 -1.84310712e-02 -3.06224469e-02
      7.17911217e-03 1.72201749e-02 3.74405459e-02 5.65458238e-02
      2.11556554e-02 6.73870966e-02 5.13503067e-02 -1.44734373e-02
      -3.74270193e-02 -2.91238297e-02 -2.14805100e-02 -1.60033107e-02
      4.43743588e-03 3.50823291e-02 5.88248782e-02 4.98764031e-02
      -2.07313020e-02 -1.77439917e-02 -6.19260669e-02 -4.12940681e-02
      -5.78037323e-03 -2.87072696e-02 1.76996645e-02 7.13281333e-02
      6.29374534e-02 2.63857264e-02 -3.70045342e-02 7.90748000e-03
      7.07074162e-03 3.45540941e-02 1.77804194e-02 4.11019661e-02
      6.94911107e-02 5.62000684e-02 2.22353637e-03 -6.05563493e-03
      -2.01594699e-02 1.83012635e-02 3.02394349e-02 -4.81247756e-04
      1.16754789e-03 7.87841603e-02 4.76289503e-02 3.57796587e-02
      -2.72831507e-02 -7.97132030e-02 -5.75260893e-02 -5.93908597e-03
      -9.70764831e-03 1.04148360e-02 4.66839448e-02 4.94003743e-02
      2.37552561e-02 1.18051842e-02 -5.53908125e-02 -4.71965261e-02
      -3.91209200e-02 -2.17522141e-02 -1.30157890e-02 2.81502213e-02
      4.35360409e-02 6.09774515e-02 -1.15715852e-02 -4.40731309e-02
      9.50371753e-03 2.47915741e-02 2.10409835e-02 9.34448093e-03
      3.22267674e-02 2.09632386e-02 2.70651132e-02 9.58093535e-03
      -2.76663043e-02 -2.62643280e-03 2.00383719e-02 9.01147258e-03
      -3.45055126e-02 1.75043344e-02 7.58755207e-03 3.76116671e-02
      1.81843434e-02 -9.44510195e-03 -7.04832189e-03 -3.77866179e-02
      -3.48774381e-02 8.90165102e-04 3.01528238e-02 3.33472192e-02
      3.50486822e-02 9.24878009e-03 -6.54283771e-03 -5.11273416e-03
      -5.06010689e-02 -4.26410735e-02 2.59543918e-02 4.20559160e-02
      2.48420108e-02 2.68178564e-02 2.94740405e-03 -2.41645798e-02
      -1.32574560e-02 1.00945553e-03 -1.06610917e-02 -2.63431575e-02
      7.65295932e-03 1.71895139e-03 1.30188996e-02 -5.86598273e-03
      -1.78472809e-02 -1.55642740e-02 -1.82902105e-02 -5.38424440e-02
      -5.15396416e-04 1.57884303e-02 1.66968741e-02 1.15840128e-02
      2.16851067e-02 3.50066903e-03 -3.65384575e-03 -2.02353727e-02
      -6.70769736e-02 -1.24010973e-01 -1.51175242e-02 8.33973987e-04
      6.74159825e-03 3.39301638e-02 2.35267393e-02 2.75305659e-02
      2.84652561e-02 -6.92509348e-03 -6.04408421e-02 -3.86747206e-03
      1.91673022e-02 2.14147270e-02 -1.21092738e-03 -2.52435356e-02
      -4.77891974e-02 -5.83711863e-02 -8.48079622e-02 -5.80765679e-02
      1.19404262e-02 2.50791609e-02 3.24865282e-02 2.39840019e-02
      4.77221189e-03 -2.19213851e-02 -4.03598063e-02 -8.23233568e-05
      -3.29762995e-02 2.02477593e-02 4.84244153e-02 5.06164953e-02
      3.31854485e-02 2.40739416e-02 3.41258012e-02 2.93990504e-02
      1.84641294e-02 -3.43861394e-02 -4.96080006e-03 -6.13937678e-04
      3.40731367e-02 2.00464539e-02 3.92419286e-03 1.85895033e-06
      -1.47192031e-02 4.89444146e-03 -4.95456792e-02 -2.87347697e-02
      7.41660828e-03 3.76492552e-02 4.66210442e-03 -2.81655360e-02
      -5.24828397e-02 -3.02691702e-02 -1.39270257e-02 -1.72628164e-02
      6.97969506e-03 1.11424979e-02 2.99253222e-02 -4.43576882e-03
      -3.97631414e-02 -5.83806783e-02 -4.88769226e-02 -3.97537183e-03
      -5.21848686e-02 -6.02352200e-03 3.72689392e-04 2.17624586e-02
      4.97635528e-02 2.63877511e-02 3.06542199e-02 1.08041260e-02
      3.39041129e-02 -3.19564603e-02 -1.13005685e-02 -1.21840090e-03
      5.05390316e-02 5.65194932e-04 2.89057032e-03 1.90760866e-02
      1.18685579e-02 5.67721911e-02 -1.97159778e-02 -5.99590177e-03
      -9.21289250e-03 -1.41548542e-02 -2.14141905e-02 -4.92826588e-02
      -2.35763136e-02 -1.98854972e-03 2.46219300e-02 -8.41753278e-03
      2.86570601e-02 6.34332700e-03 1.51070924e-02 -5.05898446e-02
      -5.05645126e-02 -2.03415984e-03 -3.11637367e-03 4.14712131e-02
      -2.00116020e-02 -6.13757817e-04 -3.27710360e-02 -2.74429172e-02
      -3.68034244e-02 -1.19843604e-02 1.13071967e-02 1.57061908e-02
      5.39532937e-02 1.85377132e-02 3.12663876e-02 -6.33945270e-03
      -4.05932739e-02 -8.10132772e-02 -2.05340609e-02 -4.02799249e-03
      4.18254212e-02 6.14843667e-02 2.48574298e-02 5.51318936e-02
      2.94815451e-02 -2.76801959e-02 -5.24636880e-02 -2.72286572e-02
      2.48605590e-02 3.62426555e-03 5.31191491e-02 -1.19603975e-02
      -9.93843749e-03 -1.81876644e-02 -4.11696397e-02 -5.65244816e-02
      -2.96766665e-02 3.52223702e-02 3.43977436e-02 6.68537468e-02
      7.38664158e-03 1.92285776e-02 9.01331007e-03 -6.76371083e-02
      -5.03757931e-02 -1.61623005e-02 2.49370676e-03 4.70593125e-02
      2.69719716e-02 3.66302133e-02 4.50557284e-02 5.43243401e-02
      -1.54956607e-02 -2.49879993e-03 -3.70191969e-02 4.53874189e-03
      2.34734025e-02 -1.50108961e-02 2.16978416e-02 5.94534799e-02
      5.78889027e-02 1.78541930e-03 -2.54994333e-02 6.20520161e-03
      5.65330945e-02 5.92339970e-02 4.49869819e-02 3.81031781e-02
      3.69353928e-02 4.63466346e-02 -2.25858483e-02 -6.46558730e-03
      2.56520472e-02 4.46098261e-02 2.08631949e-03 -1.11251473e-02
      2.13881005e-02 3.66550237e-02 4.20926288e-02 6.97288895e-03
      -6.54561212e-03 -2.46192440e-02 2.00692732e-02 4.03506570e-02
      1.24030402e-02 2.18612924e-02 2.65292469e-02 2.32509393e-02
      1.05562815e-02 -6.41598227e-03 -2.75955200e-02 -2.37938808e-03
      2.61897929e-02 -1.21106245e-02 -2.62939017e-02 6.53446978e-03
      1.54471872e-02 2.74984427e-02 -1.49784544e-02 3.24263349e-02
      4.64363731e-02 1.50854466e-02 -2.93116923e-03 1.61457211e-02
      -1.35827689e-02 1.36788301e-02 7.01833423e-03 4.55662888e-03
      4.72543128e-02 4.82683294e-02 1.96835957e-02 -1.34755559e-02
      -2.06861775e-02 -5.31768203e-02 -1.38550084e-02 1.04721515e-02
      -2.18769978e-03 -1.54327042e-02 4.04205779e-03 1.46111138e-02
      3.00367223e-03 -9.58502665e-03 -9.77906771e-03 -1.11629041e-02
      -5.83278900e-03 1.82259455e-02 1.29877366e-02 1.41495802e-02
      -5.38246296e-02 -6.80695325e-02 1.18399016e-03 -4.62087430e-03
      9.57495719e-03 1.98059473e-02 4.17424645e-03 2.80522760e-02
      4.63719144e-02 1.33559657e-02 -2.30336585e-03 -6.43314281e-03
      -4.32980582e-02 -2.63824780e-02 -2.12005200e-03 2.84217149e-02
      2.51855217e-02 1.68439951e-02 -7.36757517e-02 -6.41678572e-02
      -2.42632395e-03 -9.95058846e-03 -7.91369658e-03 2.38247402e-02
      -4.41615190e-03 -2.31510811e-02 -4.34588715e-02 -4.85537834e-02
      -7.43729547e-02 -2.43374053e-02 1.56282876e-02 2.92030387e-02
      2.38688588e-02 2.80794520e-02 8.43366026e-04 -2.66645402e-02
      -2.95196567e-02 -2.89548049e-03 5.92735130e-03 2.41467208e-02
      4.09798883e-02 3.92191112e-02 8.22947174e-03 -3.84988487e-02
      -6.49353042e-02 -2.84492671e-02 -7.04160035e-02 -5.37643321e-02
      -1.05545642e-02 3.59777128e-03 1.85275450e-02 -4.88505140e-03
      -7.34052733e-02 -7.99373314e-02 -4.96482216e-02 -1.49421943e-02
      -1.54507700e-02 3.27619538e-02 3.45784426e-02 2.91429441e-02
      5.23075499e-02 3.96584831e-02 1.71934459e-02 2.08841078e-02
      4.01875488e-02 3.04847769e-02 5.45573868e-02 5.15236855e-02
      7.34176189e-02 1.72253344e-02 1.36198634e-02 -4.58181719e-04
      -4.90445048e-02 6.74766582e-03 -1.21530006e-02 3.69133539e-02
      4.13620062e-02 4.71191145e-02 -3.04681510e-02 -8.83432999e-02
      -6.47242516e-02 -4.30560373e-02 1.58331357e-02 9.15120728e-03
      6.29130080e-02 7.16166943e-02 6.09836429e-02 -2.88728718e-02
      -5.25862724e-02 -5.29731363e-02 -8.79024714e-02 -3.06907780e-02
      -3.93524393e-02 3.53407934e-02 3.88466679e-02 -2.53294650e-02
      2.16802433e-02 3.13278101e-02 3.45003009e-02 1.19997198e-02
      4.90856841e-02 2.41540428e-02 6.03183396e-02 4.92623746e-02
      4.31430638e-02 -3.30241490e-03 2.06940267e-02 2.10527219e-02
      5.44577185e-03 6.48529530e-02 2.59500723e-02 4.43777815e-02
      3.09932809e-02 1.40339164e-02 -3.42605077e-02 -2.91967932e-02
      -1.10005811e-02 -3.72918807e-02 9.86348372e-03 7.60110421e-03
      7.15912804e-02 3.05650290e-02 -6.81893826e-02 -9.31033045e-02
      -9.77399480e-03 2.70146411e-03 -2.30848081e-02 4.51649129e-02
      2.70123594e-02 2.73509268e-02 -6.36475906e-02 -6.54790699e-02
      -1.79317361e-03 1.79007743e-02 4.05144468e-02 1.74981933e-02
      5.96505627e-02 1.50643671e-02 1.74245872e-02 -3.25673237e-03
      1.21709500e-02 1.33758066e-02 2.70466469e-02 6.67360500e-02
      6.19367771e-02 9.04623419e-02 3.72188054e-02 5.82355335e-02
      4.22138274e-02 3.18478942e-02 -7.52621889e-02 -2.78381929e-02
      3.16844098e-02 1.64849274e-02 3.44506167e-02 -1.17380247e-02
      -2.86577810e-02 -7.98581764e-02 -7.72764459e-02 -9.79278702e-03
      -3.34466458e-05 5.67636006e-02 4.85351160e-02 8.76038969e-02
      -1.66068729e-02 -1.41587742e-02 -6.17615804e-02 -5.27008064e-02
      -2.09930469e-03 2.33762544e-02 4.60829437e-02 5.33166640e-02
      5.29310070e-02 2.47877892e-02 3.18876803e-02 2.97384076e-02
      -2.59305490e-03 1.96243124e-03 3.45580019e-02 3.16906795e-02
      8.79772939e-03 9.29647218e-03 1.23857008e-02 3.67700160e-02
      4.27242853e-02 7.98077509e-03 -4.51674983e-02 7.56815169e-03
      1.99684929e-02 3.34264077e-02 5.00381961e-02 -8.96344520e-03
      -2.27433201e-02 -6.55910894e-02 -4.28005829e-02 5.13711420e-04
      6.05583750e-03 1.21326596e-02 -1.92283113e-02 -8.66686553e-03
      -2.01612487e-02 1.47632521e-03 -2.72133499e-02 -2.48795021e-02
      -1.49555607e-02 2.15691142e-02 2.44385395e-02 -6.15218608e-03
      -1.10805035e-02 1.12286648e-02 -1.27894012e-02 1.78615283e-02
      -1.10463379e-02 -1.66086457e-03 4.59438860e-02 3.63598540e-02
      4.38231835e-03 -2.04835515e-02 -2.39192881e-03 -4.64736000e-02
      2.35415762e-03 -6.84552267e-03 -1.25355879e-02 2.23193783e-03
      8.87961406e-03 -1.64512601e-02 -4.21513803e-03 -1.12862214e-02
      -2.13544723e-02 -2.59335693e-02 1.33617539e-02 1.20076938e-02
      5.43644279e-03 1.76533801e-03 -1.91317927e-02 -2.07622498e-02
      -1.29385162e-02 -3.88695672e-02 -1.46105969e-02 2.27187742e-02
      1.30376834e-02 2.82118600e-02 3.10435444e-02 6.90571265e-04
      -2.25465186e-02 -3.01301875e-03 -3.02588847e-02 -4.57735639e-03
      1.74953695e-02 3.49520184e-02 2.16232222e-02 -8.22330639e-03
      -8.10031518e-02 -5.22710942e-02 2.36384366e-02 2.14243848e-02
      2.75012273e-02 5.12976795e-02 -1.12016685e-03 3.70008149e-03
      -5.57039911e-03 -4.02796306e-02 -4.97453138e-02 -1.53954476e-02
      -2.80829743e-02 6.92655332e-04 2.97188424e-02 3.87143008e-02
      1.75763518e-02 -3.34359892e-02 -6.91062510e-02 -6.91112429e-02
      6.14567474e-03 2.86814570e-03 2.06514038e-02 4.94002216e-02
      5.20318151e-02 -1.45660015e-02 -3.20579633e-02 1.83693208e-02
      4.45465464e-03 -1.42075019e-02 2.53528338e-02 1.89282801e-02
      4.16690744e-02 3.78053412e-02 -6.56456798e-02 -7.61719197e-02
      -7.34473765e-02 -1.35628637e-02 -1.71428602e-02 1.21726189e-02
      4.35573570e-02 7.56951720e-02 8.05305764e-02 -3.95190977e-02
      -5.31292632e-02 -1.77213494e-02 -3.56244594e-02 -1.73629206e-02
      2.41225082e-02 3.68896201e-02 6.79947808e-02 -1.14521419e-03
      -9.82251167e-02 -9.83592644e-02 -1.11941911e-01 -4.83529717e-02
      -6.01360761e-02 -4.06667218e-02 9.26849805e-03 2.31363401e-02
      4.68217172e-02 -6.94550201e-03 5.69544965e-03 -8.46932363e-03
      2.71801613e-02 7.13517936e-03 4.87203188e-02 7.18524382e-02
      1.07083902e-01 -2.36617494e-02 1.18509438e-02 6.79692673e-03
      -4.56706733e-02 2.90733539e-02 -1.44365607e-02 4.72239107e-02
      3.85120325e-02 1.96542032e-02 2.34525539e-02 -6.42695427e-02
      -2.47399081e-02 -3.16294916e-02 1.74309872e-02 8.14785657e-04
      1.62454955e-02 1.66297257e-02 2.87940465e-02 -2.54226532e-02
      -8.52718111e-03 -1.43407192e-02 -5.16019091e-02 4.21742424e-02
      -1.96671579e-02 4.65290435e-02 4.24975558e-04 -1.63437240e-02
      -9.95075610e-03 6.66444227e-02 4.41287272e-02 1.59870870e-02
      7.07338154e-02 1.79389566e-02 6.37432188e-02 4.08736095e-02
      -1.97882857e-02 -1.73770301e-02 3.33299674e-02 3.44024673e-02
      8.32173787e-03 7.15764686e-02 3.05264145e-02 5.68066463e-02
      6.31022826e-03 -3.10288630e-02 -3.39660868e-02 2.50981022e-02
      5.67153282e-03 5.03284158e-03 8.19219500e-02 3.29909399e-02
      8.78065377e-02 5.84271625e-02 -5.57404421e-02 -7.00365677e-02
      2.46179774e-02 2.49781460e-02 2.64394153e-02 7.99638033e-02
      2.77679991e-02 4.88202237e-02 -3.41097489e-02 -7.11439252e-02
      4.60831309e-03 2.88924389e-02 4.45996672e-02 1.76697690e-02
      5.08542843e-02 -4.22819145e-03 1.06250839e-02 -2.53857095e-02
      -3.95982526e-02 3.90135236e-02 3.81592177e-02 5.73604703e-02
      4.54723984e-02 9.27447751e-02 2.11453252e-02 4.09607887e-02
      4.08311635e-02 2.80603692e-02 -7.17919022e-02 3.20974030e-02
      3.56252603e-02 2.68881302e-03 4.41930369e-02 -2.23409925e-02
      1.06301121e-02 -5.22058122e-02 -8.16280469e-02 1.15454933e-02
      3.21567692e-02 5.35004772e-02 3.41902934e-02 7.21308663e-02
      -9.67002066e-04 2.36050803e-02 -1.85260866e-02 -1.30617917e-02
      4.91230795e-03 -2.10732198e-03 1.32473866e-02 2.31611989e-02
      7.56948739e-02 1.03299413e-02 1.15144690e-02 -3.13252513e-03
      2.18634889e-03 5.75537942e-02 2.07923669e-02 1.49063831e-02
      6.85157022e-03 4.45398837e-02 2.81746630e-02 3.67327072e-02
      3.09753958e-02 4.81993705e-02 -3.00966259e-02 -2.36785691e-02
      1.47633431e-02 1.24790585e-02 4.70857210e-02 -1.53891426e-02
      -4.50773127e-02 -6.69739768e-02 -1.85202751e-02 4.02420461e-02
      -2.52312585e-03 1.74422730e-02 6.56279456e-03 1.27075333e-02
      1.31473998e-02 -2.70989053e-02 -3.40508446e-02 5.16592897e-02
      1.68947317e-02 2.48123804e-04 -1.27397235e-02 -2.69959662e-02
      8.81197304e-03 -3.82587570e-03 -1.02844834e-02 -1.34909004e-02
      2.21462362e-02 3.43768224e-02 9.93202068e-03 -7.13051949e-03
      2.32839282e-03 5.69447549e-03 -9.89249442e-03 -1.08467333e-03
      1.68630835e-02 5.27492575e-02 3.87272127e-02 4.65489866e-04
      -9.17844754e-03 -2.39479020e-02 -3.60510312e-02 -4.96090092e-02
      -6.42981306e-02 -3.16482335e-02 2.91605126e-02 6.46215603e-02
      2.48631183e-02 1.08571323e-02 1.35097736e-02 -2.65510492e-02
      -6.32428825e-02 -5.31831644e-02 -1.60525534e-02 6.08574301e-02
      1.46869558e-03 -3.51009122e-03 -3.18541704e-03 -4.17948291e-02
      -3.47625390e-02 -3.97068337e-02 -7.89246522e-03 7.33445259e-03
      3.35875116e-02 2.72820313e-02 1.76231451e-02 -1.28429243e-02
      -3.36657688e-02 -3.20832171e-02 1.05712796e-02 8.91702436e-03
      -2.55544065e-03 3.44571546e-02 2.98536029e-02 -4.12609894e-03
      -1.38809141e-02 -6.44981209e-03 -2.42934842e-02 -3.10997646e-02
      -2.80874632e-02 -8.55846144e-03 4.48562466e-02 7.72800390e-03
      -7.26312771e-03 -4.09992645e-03 -1.16102081e-02 -2.06775926e-02
      1.40018100e-02 -8.57055653e-03 -1.64531749e-02 8.93028080e-03
      5.54267652e-02 -1.20204478e-03 -8.94296449e-03 2.19225679e-02
      -2.07768567e-02 -2.96722036e-02 2.34426814e-03 3.58029380e-02
      5.53905927e-02 1.05208112e-02 -4.63769957e-02 -3.91361564e-02
      -7.26069584e-02 -3.36367525e-02 -1.06723748e-01 -1.04424916e-01
      -5.45384251e-02 -2.28262134e-02 3.12137641e-02 2.02455767e-03
      1.23610934e-02 3.87493670e-02 1.42452389e-03 -2.28499155e-02
      -2.13586669e-02 -5.34223218e-05 3.31966802e-02 2.96792537e-02
      -2.59558717e-03 -1.64841935e-02 -4.07485552e-02 -2.59025581e-02
      -8.49749073e-02 -1.05952203e-01 -9.58016440e-02 -1.90821234e-02
      3.98852080e-02 1.65590495e-02 1.63189787e-02 -8.23728647e-03
      3.03192884e-02 -3.96865606e-03 -2.83764098e-02 -3.15538943e-02
      -1.26049959e-03 -1.14637483e-02 4.28264216e-02 -1.41107244e-02
      -5.38962148e-02 9.80084948e-03 -3.35095599e-02 2.91585457e-03
      -2.74678897e-02 -3.39047052e-02 6.23487756e-02 4.83809784e-02
      2.84814071e-02 -8.24983418e-03 2.21869964e-02 1.88197196e-02
      6.53494475e-03 -2.85566729e-02 1.88919017e-03 4.35399972e-02
      5.08380905e-02 6.18775096e-03 -5.05992100e-02 -1.27476770e-02
      -3.82574201e-02 -8.55191983e-03 -5.30574471e-02 -8.81488342e-03
      -3.34580019e-02 5.22621349e-02 4.24489146e-03 9.83704627e-03
      4.94104587e-02 9.91375558e-03 5.32809943e-02 1.82750467e-02
      -7.40523338e-02 -8.04895833e-02 2.15956960e-02 2.68305149e-02
      1.86546333e-02 5.58429994e-02 2.43430287e-02 3.32119167e-02
      -9.87700094e-03 -9.38549638e-02 1.75787322e-02 4.81944159e-02
      2.93964874e-02 8.86801165e-03 3.76569033e-02 -3.82195576e-03
      3.29093598e-02 3.17308353e-03 -1.73110142e-02 -4.90033142e-02
      -2.50441069e-03 5.13926148e-02 5.02092205e-02 7.31150731e-02
      2.74844617e-02 4.22311239e-02 6.24210108e-03 -4.60057668e-02
      -8.24768245e-02 1.50141856e-02 -1.74127929e-02 5.53517835e-03
      3.92229408e-02 -3.72046279e-03 3.41804326e-02 -5.79238730e-03
      -5.24294488e-02 -1.72456671e-02 -2.69823503e-02 -1.64933652e-02
      1.92802753e-02 5.07876985e-02 7.87093770e-03 4.89848591e-02
      3.52442227e-02 -4.11916338e-03 -5.86517304e-02 -3.45812254e-02
      4.26264713e-03 2.37653181e-02 6.25102296e-02 3.13551538e-02
      5.13414592e-02 3.11833806e-02 -1.66429915e-02 -1.02428719e-02
      -2.28976440e-02 -1.29587045e-02 9.92533937e-03 4.98008169e-02
      2.18721386e-02 6.50667772e-02 5.58443367e-02 2.39992794e-02
      -3.50835621e-02 -5.54053485e-02 -1.90469846e-02 8.69661570e-03
      3.27897109e-02 -7.63005484e-03 -6.43450010e-04 -1.50857139e-02
      -9.80078708e-03 9.07936716e-04 -5.17121069e-02 -1.11187827e-02
      3.86598427e-03 2.90411618e-02 2.95749232e-02 2.91963592e-02
      2.74774302e-02 6.54336959e-02 -3.30718011e-02 -7.64385313e-02
      -3.17606106e-02 -1.55353127e-02 1.39472950e-02 -1.37920957e-02
      2.80209966e-02 2.21515931e-02 1.91834122e-02 -2.00720094e-02
      -7.11366683e-02 -3.09580471e-02 -5.79211581e-03 2.33089756e-02
      1.98115949e-02 4.18342389e-02 4.70439717e-02 8.17689076e-02
      2.31988449e-03 -3.96672413e-02 -3.77225429e-02 -2.06216723e-02
      -2.29495782e-02 -2.73485892e-02 -3.41124311e-02 -6.34380011e-03
      6.96064904e-02 4.76538539e-02 3.09912045e-03 -2.11717710e-02
      9.69012454e-03 2.72393133e-02 -8.45153001e-04 -4.28310828e-03
      2.84112561e-02 7.93673098e-02 -1.73268858e-02 -6.93509430e-02
      -6.53596669e-02 -4.52333689e-02 -1.98586211e-02 -2.03048624e-02
      -2.87191179e-02 -4.93176095e-03 2.84851994e-02 6.41062036e-02
      -6.79149944e-03 -1.09512480e-02 1.25453863e-02 1.62970554e-02
      9.52636078e-03 1.96275022e-03 3.79565991e-02 5.71996085e-02
      9.13505815e-03 -4.26086504e-03 -2.19481997e-02 -1.97224598e-02
      -9.48832091e-03 -2.69986000e-02 -1.51514178e-02 5.13152592e-03
      1.94036905e-02 -1.21763879e-02 -9.27538052e-03 -2.07609124e-03
      -3.12983170e-02 -8.82529560e-03 2.32746452e-03 -8.32906924e-03
      6.84286375e-03 2.41144211e-03 1.32378330e-02 -1.07901376e-02
      -1.49769252e-02 -9.05998796e-03 1.12151178e-02 -9.44752805e-03
      2.20641214e-02 4.02102806e-02 1.54910199e-02 -6.42449735e-03
      -3.44483717e-03 -1.91721749e-02 -3.24930996e-02 -1.37352999e-02
      -2.39152694e-03 2.66272370e-02 4.33005244e-02 1.02745891e-02</_></support_vectors>
  <uncompressed_sv_total>98</uncompressed_sv_total>
  <uncompressed_support_vectors>
    <_>
      1.11493636e-02 1.02901585e-01 2.56844252e-01 1.74077660e-01
      1.47265404e-01 6.33121058e-02 3.65820415e-02 1.05973687e-02
      3.23699438e-03 2.56844252e-01 2.56844252e-01 2.56844252e-01
      2.18550205e-01 1.57977641e-01 1.50478467e-01 1.61774531e-01
      1.44409031e-01 2.32421950e-01 3.86837032e-03 1.43734729e-02
      7.29538724e-02 1.22926764e-01 2.25354001e-01 2.03518748e-01
      1.51297942e-01 6.51145354e-02 5.19975601e-03 1.27775818e-01
      5.43825775e-02 8.30309987e-02 1.19436897e-01 1.56965882e-01
      2.56844252e-01 2.56844252e-01 2.56844252e-01 2.56844252e-01
      3.42097342e-01 1.37617648e-01 6.71187788e-02 3.25137638e-02
      1.80438627e-02 3.13827917e-02 4.28416319e-02 6.66195080e-02
      3.42097342e-01 3.42097342e-01 1.30292438e-02 2.15903483e-03 0.
      1.83022651e-03 0. 1.82554533e-04 4.76354407e-03 3.42097342e-01
      2.81520844e-01 1.79684721e-02 1.40947374e-02 1.62118003e-02
      1.13862706e-02 3.63047905e-02 8.04937258e-02 2.37985507e-01
      3.42097342e-01 3.42097342e-01 3.24828870e-04 2.12059545e-04 0. 0.
      0. 2.74981884e-03 2.17360817e-02 3.42097342e-01 3.54204983e-01
      1.76074589e-03 2.48472526e-04 0. 9.65947926e-04 0. 8.72525779e-05
      3.51695600e-03 3.54204983e-01 3.54204983e-01 2.18742862e-02
      3.45873646e-02 6.03212696e-03 1.36753311e-02 2.62098387e-03
      2.26831436e-02 6.93422034e-02 3.54204983e-01 3.54204983e-01
      1.97411459e-02 2.79729092e-03 0. 0. 0. 0. 8.01072223e-04
      3.54204983e-01 3.54204983e-01 1.82580635e-01 5.89447543e-02
      1.02506150e-02 4.76687076e-03 1.09910965e-03 3.39026237e-03
      4.62655257e-03 2.71326900e-01 2.66321152e-01 6.12396747e-02
      1.86197549e-01 5.96673861e-02 1.67345375e-01 1.41145423e-01
      1.79137498e-01 1.96276486e-01 2.66321152e-01 4.34505790e-02
      2.52028219e-02 1.29918844e-01 6.31260946e-02 2.16874972e-01
      2.66321152e-01 2.36407310e-01 9.76691842e-02 1.06736273e-01
      2.66321152e-01 2.66321152e-01 2.66321152e-01 1.24031328e-01
      1.20440803e-01 7.03192279e-02 2.88378019e-02 1.66606903e-02
      1.37956828e-01 7.60127306e-02 1.16604321e-01 2.66321152e-01
      1.70529589e-01 2.36594215e-01 1.74317524e-01 5.38814887e-02
      1.31164249e-02 1.47360628e-02 1.46202240e-02 1.92533073e-03
      8.79349746e-03 3.30192931e-02 1.50538087e-01 2.76020110e-01
      2.22406358e-01 4.59571965e-02 2.15473566e-02 3.25498320e-02
      5.93873160e-03 1.96073186e-02 3.97458762e-01 3.97458762e-01
      7.20608756e-02 4.14897501e-02 8.57541431e-03 2.66588069e-02
      6.06062170e-03 1.91340316e-02 1.07384652e-01 1.45047411e-01
      2.99859524e-01 2.45111465e-01 9.97850969e-02 1.68941058e-02
      6.31687883e-03 1.21975020e-02 6.27988297e-03 2.38858126e-02
      3.97458762e-01 3.97458762e-01 8.63451958e-02 3.39411385e-02
      4.60947445e-03 6.69028563e-03 3.82100325e-03 1.16747280e-03
      2.15346478e-02 3.52997392e-01 3.52997392e-01 5.29058464e-02
      1.38465478e-03 1.76274334e-04 2.06255610e-03 8.57000053e-03
      4.03356971e-03 5.83554395e-02 3.00928742e-01 3.52997392e-01
      8.69827271e-02 1.72653887e-02 5.09579526e-03 8.38458631e-03
      1.52195664e-03 2.41292105e-03 1.93622299e-02 3.52997392e-01
      3.52997392e-01 6.83196113e-02 2.72672810e-03 1.80310060e-04
      5.52641694e-04 0. 1.59347721e-03 2.86782701e-02 3.52997392e-01
      3.52997392e-01 1.14051081e-01 5.74970338e-03 6.18653197e-04
      2.44306342e-04 1.38200950e-02 1.53758051e-02 5.83389588e-02
      2.67628014e-01 3.50327671e-01 1.27754122e-01 4.38736342e-02
      8.64922162e-03 1.35210939e-02 6.11265562e-03 1.48967747e-02
      1.64474919e-02 1.17537208e-01 3.50327671e-01 2.88394183e-01
      7.24884570e-02 1.34761771e-03 6.09272206e-03 0. 1.52611919e-02
      3.63308489e-02 3.50327671e-01 3.50327671e-01 1.12817906e-01
      1.83174033e-02 9.97648342e-04 3.93971597e-04 7.00902659e-03
      1.95624158e-02 2.87321154e-02 2.01275781e-01 3.50327671e-01
      3.35261762e-01 1.31328061e-01 6.65098778e-05 7.03529222e-03
      1.95361744e-03 4.24196245e-04 3.57852713e-03 2.36195158e-02
      1.51627079e-01 2.77644008e-01 3.34564686e-01 2.62157768e-01
      1.41897462e-02 4.19242159e-02 1.58766983e-04 0. 1.82807492e-03
      5.19573614e-02 2.03018919e-01 3.34564686e-01 3.34564686e-01
      3.34564686e-01 1.28233607e-03 1.25273759e-03 5.74340392e-03
      1.40099670e-03 2.72442326e-02 9.70091596e-02 2.02293411e-01
      2.14414880e-01 1.29179591e-02 1.97258182e-02 1.91304449e-03 0. 0.
      1.60994083e-02 7.50953928e-02 2.96150386e-01 3.34564686e-01
      1.74590632e-01 2.20705703e-01 4.25635430e-04 0. 5.16824039e-05
      1.53155299e-03 1.46581419e-02 8.78692940e-02 3.58999372e-01
      3.58999372e-01 3.58999372e-01 4.32683446e-04 0. 0. 0. 0.
      4.83374996e-03 6.70448765e-02 3.58999372e-01 1.08985402e-01
      6.35334989e-03 8.42949066e-06 0. 6.68370980e-04 8.18304624e-03
      6.65140897e-02 2.34618172e-01 2.96342582e-01 3.58999372e-01
      2.15327926e-02 4.08764184e-03 7.47841987e-05 2.83154459e-05 0.
      3.61078256e-03 4.68420722e-02 3.58999372e-01 3.54157358e-01
      3.80118713e-02 3.95942107e-03 0. 0. 0. 0. 1.31934881e-04
      3.54157358e-01 3.54157358e-01 3.54157358e-01 8.85193944e-02
      7.25245662e-03 2.13097087e-06 2.51659512e-05 0. 0. 2.48898491e-01
      3.54157358e-01 4.57230583e-02 6.11911668e-03 3.03333683e-04
      1.22611731e-04 0. 0. 1.20028062e-03 2.57762730e-01 3.54157358e-01
      2.96684444e-01 7.89882392e-02 4.36596153e-03 1.27329244e-04
      4.38822346e-04 1.97000161e-04 7.12724112e-04 9.87208709e-02
      3.38134021e-01 3.38134021e-01 3.38134021e-01 1.47396073e-01
      3.45087722e-02 1.07746646e-02 0. 2.09946767e-04 7.56533220e-02
      8.10639635e-02 3.38134021e-01 3.38134021e-01 2.64901817e-01
      1.72089130e-01 5.75349182e-02 5.87758515e-03 3.20223509e-03
      1.24751516e-02 1.96085721e-01 3.38134021e-01 2.47843996e-01
      3.77749689e-02 1.14347367e-02 5.12010511e-03 2.20247568e-03
      5.60805574e-03 3.06458678e-02 6.45047575e-02 1.81206167e-01
      1.53321996e-01 6.53179660e-02 5.31236157e-02 2.81851739e-02
      9.05312132e-03 1.06087876e-02 3.11571676e-02 7.83573277e-03
      4.66733314e-02 1.21859521e-01 1.29827842e-01 1.83883950e-01
      8.25250596e-02 1.59254428e-02 3.91569780e-03 6.23497134e-03
      2.76132138e-03 1.31431213e-02 1.89931430e-02 4.01135117e-01
      5.82626760e-01 5.25071695e-02 1.10930260e-02 2.70575634e-03
      1.05232245e-03 3.22777592e-02 4.61977832e-02 5.24322055e-02
      5.16562164e-02 1.04816101e-01 4.90010828e-02 1.30362613e-02
      1.15395058e-02 1.83470026e-02 6.90646889e-03 1.23306317e-02
      1.37258042e-02 2.09270149e-01 5.82626760e-01 9.52984020e-02
      9.25359130e-03 7.27688055e-03 5.96530503e-03 1.87995916e-04
      2.13421811e-03 7.32300291e-03 2.30642736e-01 4.56157357e-01
      3.66778485e-02 1.92992843e-03 1.59920382e-04 4.18380987e-05 0.
      1.34747545e-03 1.08416472e-02 2.20733821e-01 4.56157357e-01
      6.27416894e-02 2.52330559e-03 0. 0. 5.92261320e-04 5.26772754e-04
      5.71499870e-04 1.40893251e-01 4.56157357e-01 5.03646955e-02
      1.96594908e-03 4.21847741e-04 2.79946427e-04 5.23368595e-03
      6.35672128e-04 3.73735646e-04 1.69907212e-01 4.56157357e-01
      6.64612055e-02 5.23728644e-03 8.87640170e-04 1.53713033e-03
      4.27883060e-05 2.39211391e-03 1.62438620e-02 2.79441357e-01
      4.33253497e-01 7.05807358e-02 4.59764292e-03 0. 2.54794082e-04
      3.57340067e-03 3.07557452e-03 1.95502918e-02 1.60322458e-01
      4.33253497e-01 1.63487181e-01 4.35615890e-02 0. 3.84597923e-03
      8.71284958e-03 2.23873137e-03 8.39484856e-03 2.17701674e-01
      4.33253497e-01 9.94626507e-02 6.49183616e-03 3.75600159e-03
      8.99048522e-03 7.56792771e-03 4.67356667e-03 4.89638820e-02
      2.02146038e-01 4.33253497e-01 7.48702064e-02 5.47427824e-03
      3.63647426e-03 1.28917359e-02 5.34569332e-03 6.89401245e-03
      1.21677667e-02 1.44981239e-02 1.11927383e-01 2.82875925e-01
      2.82875925e-01 2.82875925e-01 3.72771248e-02 4.70251329e-02
      5.00168465e-03 1.32318155e-03 7.01265084e-03 1.01910681e-01
      2.82875925e-01 2.82875925e-01 2.82875925e-01 2.22676709e-01
      1.47009976e-02 7.40674511e-03 5.05412892e-02 1.08644173e-01
      1.55552730e-01 2.43466079e-01 2.02814355e-01 9.96173024e-02
      4.70190421e-02 5.68239056e-02 1.49120565e-03 2.06279941e-02
      6.13395572e-02 1.23785518e-01 2.82875925e-01 2.82875925e-01
      2.74971396e-01 1.75192982e-01 2.79317945e-01 4.56195474e-02
      1.19855290e-03 2.79545347e-04 1.08491527e-02 4.83257249e-02
      2.84653515e-01 3.01134676e-01 3.01134676e-01 3.01134676e-01
      2.77184188e-01 1.11733168e-01 8.84597469e-03 4.43278858e-03
      1.90972886e-03 3.68651152e-02 1.16342276e-01 3.01134676e-01
      1.43405303e-01 3.15380394e-02 1.14717958e-02 9.30036325e-03
      2.46166382e-02 6.94224834e-02 2.04403266e-01 2.48971164e-01
      2.25822583e-01 2.57091045e-01 2.25762218e-01 1.66732058e-01
      2.99013220e-02 4.65084501e-02 2.67429054e-02 6.41795322e-02
      1.01146735e-01 1.46345392e-01 3.53756607e-01 3.53756607e-01
      1.65028632e-01 3.15369256e-02 2.06789561e-02 2.91443127e-03
      1.25970347e-02 1.11572118e-02 3.53756607e-01 3.53756607e-01
      3.53756607e-01 2.24436000e-01 4.48148735e-02 2.09965184e-02
      4.55448730e-03 9.88562591e-03 1.45800896e-02 1.70970932e-01
      1.50076702e-01 2.41299242e-01 2.27638215e-01 7.61576071e-02
      8.06193352e-02 3.05952802e-02 3.81232612e-02 2.88832579e-02
      3.65852192e-02 1.20562457e-01 2.04375818e-01 1.79376394e-01
      9.99654010e-02 7.48079047e-02 2.98177656e-02 3.01653035e-02
      3.38723622e-02 5.44987433e-02 2.92172790e-01 2.92172790e-01
      2.92172790e-01 9.90353748e-02 5.20661958e-02 4.00039703e-02
      3.88963185e-02 9.39088017e-02 1.34253919e-01 2.71432906e-01
      2.92172790e-01 2.85250276e-01 1.64462000e-01 1.16067693e-01
      1.24934584e-01 8.30906257e-02 1.24525763e-01 1.58867627e-01
      1.83210924e-01 2.47678429e-01 2.02164143e-01 8.60885233e-02
      3.74880880e-02 4.48652916e-02 3.80647257e-02 1.09925732e-01
      1.38951495e-01 1.56807989e-01 1.89490497e-01 2.10896268e-01
      1.30703524e-01 6.32803664e-02 1.16823651e-01 8.83771479e-02
      1.08240023e-01 1.25055417e-01 2.87537538e-02 2.47477908e-02
      3.30109186e-02 3.54457051e-02 5.54755963e-02 2.81175971e-02
      1.92058440e-02 1.43939881e-02 1.58809405e-02 7.97310844e-03
      7.83823151e-03 1.45404581e-02 1.59965977e-01 5.89212596e-01
      2.04366431e-01 1.89681612e-02 1.04378816e-02 5.66782802e-03
      2.09801327e-02 2.38375533e-02 3.16972286e-02 4.75666486e-02
      5.90042025e-02 2.57866997e-02 2.49149967e-02 1.35081159e-02
      1.25007126e-02 7.65740965e-03 1.30890338e-02 1.97432972e-02
      4.04137909e-01 5.89212596e-01 2.20780462e-01 2.77586449e-02
      1.55066820e-02 4.00887523e-03 2.76894658e-03 3.50787479e-04
      1.02818303e-03 9.62646753e-02 4.09292459e-01 1.68415964e-01
      1.62207093e-02 9.96085163e-03 1.64738763e-03 3.81091312e-02
      3.36306496e-03 2.12187581e-02 2.06618682e-01 4.09292459e-01
      1.88532606e-01 4.26156521e-02 1.00082746e-02 1.79149974e-02
      6.58798218e-03 1.20343931e-03 1.20110717e-03 2.12170824e-01
      4.09292459e-01 2.28501990e-01 3.98789942e-02 3.19908261e-02
      6.93043787e-03 8.27085674e-02 2.57961489e-02 7.80304000e-02
      1.70774490e-01 4.00586069e-01 2.32702792e-01 9.61867794e-02
      6.42658174e-02 4.75446135e-02 5.38566895e-02 1.78139508e-02
      7.39829689e-02 3.12894672e-01 3.12894672e-01 1.61554828e-01
      3.42397280e-02 9.57870763e-03 3.15601230e-02 1.98765043e-02
      4.13847603e-02 2.43703455e-01 2.62415826e-01 3.12894672e-01
      5.57013117e-02 7.67844077e-03 7.67404260e-03 2.01623831e-02
      1.01427615e-01 5.73052578e-02 1.86941653e-01 3.12894672e-01
      3.12894672e-01 1.13505833e-01 8.65704641e-02 6.58713132e-02
      5.85626028e-02 1.93841718e-02 4.93058637e-02 3.05322409e-01
      3.12894672e-01 2.47805655e-01 4.52591144e-02 3.32169235e-02
      2.73066852e-02 2.04032082e-02 2.37972513e-02 3.33799534e-02
      1.25251949e-01 1.92643911e-01 2.42315561e-01 2.42315561e-01
      1.59614742e-01 9.91850272e-02 7.32365474e-02 8.70085955e-02
      2.47546602e-02 8.49599615e-02 1.53678700e-01 1.58490881e-01
      2.42315561e-01 2.42315561e-01 2.42315561e-01 2.42315561e-01
      2.97379661e-02 1.69676244e-01 2.42315561e-01 1.86986953e-01
      1.94086954e-01 1.85105860e-01 1.21348888e-01 5.19319810e-02
      4.07503583e-02 4.50416282e-02 2.08804622e-01 2.42315561e-01
      2.42315561e-01 1.66364864e-01 1.97308868e-01 1.42513916e-01
      1.16473056e-01 8.97927210e-02 1.27552047e-01 2.72077899e-02
      3.99797596e-02 5.95466383e-02 1.04171842e-01 1.62034959e-01
      2.33335644e-01 2.33335644e-01 2.33335644e-01 1.70653462e-01
      1.64953858e-01 1.40621707e-01 8.10453370e-02 1.70271128e-01
      1.51105687e-01 2.05527887e-01 2.33335644e-01 2.19166934e-01
      1.01519428e-01 1.29189581e-01 1.38987884e-01 1.60403386e-01
      1.52106136e-01 1.21562049e-01 1.54778376e-01 1.94151580e-01
      1.43717930e-01 1.38635680e-01 2.15113521e-01 1.74667701e-01
      1.39083400e-01 1.52607918e-01 1.38623387e-01 2.16394514e-01
      2.33335644e-01 2.10859329e-01 1.44400656e-01 1.66495875e-01
      1.77166209e-01 8.32050890e-02 1.72939539e-01 1.57434180e-01
      1.11282490e-01 1.19190857e-01 1.01089165e-01 1.92262053e-01
      1.17668241e-01 2.12003961e-01 1.19850397e-01 1.40556157e-01
      1.32690832e-01 9.90999267e-02 1.84618816e-01 2.06502169e-01
      2.18969449e-01 2.39435703e-01 2.09823340e-01 1.33843958e-01
      1.33101374e-01 1.27960965e-01 1.15351491e-01 1.78019866e-01
      1.68215290e-01 2.39435703e-01 2.05294237e-01 1.63692951e-01
      1.19176015e-01 1.16771951e-01 1.16161324e-01 1.68307945e-01
      2.39435703e-01 2.39435703e-01 1.57618463e-01 1.32452771e-01
      1.65417552e-01 7.79039040e-02 7.07187653e-02 9.37274322e-02
      9.52843279e-02 2.33510494e-01 2.33302772e-01 1.37838647e-01
      1.62512079e-01 1.58323422e-01 1.30646750e-01 1.16892710e-01
      1.50240377e-01 1.42204449e-01 1.65799469e-01 2.00814873e-01
      2.33510494e-01 1.30081311e-01 9.43187624e-02 7.48336241e-02
      1.05534069e-01 1.47913381e-01 2.33510494e-01 2.33510494e-01
      2.04946414e-01 1.53928831e-01 1.38609052e-01 1.70462295e-01
      1.84813961e-01 1.41575783e-01 1.57186240e-01 2.19687656e-01
      2.33510494e-01 2.33510494e-01 1.07067125e-02 1.82161648e-02
      2.22405214e-02 4.75884415e-02 5.40987328e-02 1.62794683e-02
      2.19600406e-02 1.45028960e-02 1.69980600e-02 2.83332914e-03
      1.12249190e-02 2.38794424e-02 3.80476356e-01 5.93056619e-01
      8.37327763e-02 1.88202802e-02 7.35287368e-03 3.72962072e-03
      1.37300808e-02 1.46737825e-02 2.15427205e-02 5.29152602e-02
      8.70834440e-02 2.11842451e-02 1.92817058e-02 2.12719906e-02
      2.78102551e-02 3.56077030e-03 6.95951143e-03 1.65713374e-02
      3.28592390e-01 5.93056619e-01 9.28321704e-02 1.02150152e-02
      4.30236571e-03 4.45579132e-03 1.63219385e-02 3.78712360e-03
      7.52922893e-03 2.81829059e-01 4.73197699e-01 1.81256026e-01
      4.19182368e-02 2.76220217e-02 1.75054371e-02 9.91351977e-02
      4.59812358e-02 6.27980903e-02 8.66990611e-02 2.62005061e-01
      1.77660763e-01 8.62920061e-02 9.46698561e-02 9.32980478e-02
      1.53031861e-02 5.35096321e-03 2.28901319e-02 2.34034881e-01
      4.73197699e-01 9.93712544e-02 1.73499305e-02 5.71563980e-03
      8.98588076e-03 6.85920268e-02 2.14430541e-02 4.13082689e-02
      9.00730491e-02 4.25147146e-01 1.22118302e-01 4.91812341e-02
      4.26559635e-02 5.03677838e-02 1.15633965e-01 9.40948799e-02
      1.61100179e-01 1.79066435e-01 2.51369536e-01 1.66562840e-01
      1.29465103e-01 1.36886269e-01 1.08872697e-01 6.69894740e-02
      2.90481336e-02 1.29153475e-01 2.51369536e-01 2.51369536e-01
      1.95865929e-01 1.77448720e-01 7.67091960e-02 1.01999678e-01
      6.94023594e-02 5.34567125e-02 5.65622747e-02 1.61769047e-01
      2.51369536e-01 2.46657819e-01 9.91575271e-02 8.54202509e-02
      7.47376010e-02 2.10263610e-01 1.35697827e-01 9.30693522e-02
      2.08270535e-01 2.51369536e-01 1.85785368e-01 2.47591227e-01
      1.54270604e-01 2.51369536e-01 3.32236812e-02 8.55497569e-02
      1.75614625e-01 1.56914130e-01 1.98045105e-01 1.11643322e-01
      7.88409486e-02 1.96535643e-02 3.54553871e-02 5.86672127e-02
      1.64401025e-01 1.95099562e-01 2.30206251e-01 1.38342768e-01
      1.00704454e-01 5.76146431e-02 3.15917134e-02 5.16784862e-02
      1.47210002e-01 2.50023752e-01 2.88178265e-01 2.67749131e-01
      2.76214004e-01 9.29704830e-02 7.02966601e-02 2.93706525e-02
      7.51673281e-02 3.15476447e-01 3.15476447e-01 3.15476447e-01
      2.18992397e-01 1.28484637e-01 9.24841911e-02 3.49130742e-02
      2.50742529e-02 8.28642473e-02 9.08034742e-02 1.38056278e-01
      8.91610235e-02 8.03786665e-02 5.77355735e-02 4.66399044e-02
      4.79052998e-02 4.49333675e-02 5.25490716e-02 1.67421460e-01
      3.68176579e-01 1.52547315e-01 5.74705452e-02 4.20468710e-02
      3.19651924e-02 6.32212684e-02 6.17143400e-02 7.26353377e-02
      3.68176579e-01 3.68176579e-01 2.32598051e-01 4.25494798e-02
      2.37026177e-02 2.53958479e-02 2.33237185e-02 2.06702948e-02
      6.43752813e-02 3.68176579e-01 3.68176579e-01 1.41515046e-01
      1.17947953e-02 8.02470744e-03 8.29198863e-03 2.01542154e-02
      4.92597036e-02 3.29259545e-01 1.96751103e-01 3.13765198e-01
      1.41512290e-01 6.71834722e-02 2.46121157e-02 2.04978175e-02
      3.66677158e-02 6.25131726e-02 8.62342864e-02 2.52548337e-01
      1.17593586e-01 7.54023492e-02 5.13924025e-02 3.42402980e-02
      5.85049838e-02 1.25443876e-01 1.48228988e-01 1.13978967e-01
      3.13765198e-01 3.13765198e-01 6.55601248e-02 1.15964757e-02
      1.25349395e-03 7.00122258e-03 2.71999259e-02 1.57828704e-01
      3.13765198e-01 3.13765198e-01 8.80765244e-02 2.88487803e-02
      1.74905118e-02 1.83360819e-02 8.59713927e-02 2.06818014e-01
      3.13765198e-01 3.13765198e-01 1.82152942e-01 6.03020750e-02
      8.53002071e-02 6.10261634e-02 1.01281971e-01 1.55208617e-01
      2.07705468e-01 1.91417247e-01 7.45452717e-02 1.27363026e-01
      6.69189468e-02 1.70226425e-01 1.21758111e-01 1.22124128e-01
      1.34537399e-01 1.25245109e-01 1.52914420e-01 9.26996171e-02
      1.27146974e-01 2.09247954e-02 6.18603118e-02 6.67325258e-02
      1.70903355e-01 2.78234333e-01 2.78234333e-01 2.78234333e-01
      2.78234333e-01 9.18683037e-02 6.90030158e-02 1.47899359e-01
      1.47409320e-01 2.42730230e-01 2.78234333e-01 2.78234333e-01
      1.96717709e-01 1.07419439e-01 1.92410275e-02 1.20650949e-02
      2.29743402e-02 3.42536159e-02 7.73228332e-02 3.34595554e-02
      1.49990888e-02 1.35199418e-02 1.40825706e-02 4.01910488e-03
      3.76397674e-03 7.17347814e-03 1.83977783e-01 5.54103374e-01
      1.91429704e-01 1.19775282e-02 1.88848318e-03 2.68963911e-03
      1.57636441e-02 1.57706980e-02 2.47816276e-02 4.06122729e-02
      7.65372515e-02 3.58174630e-02 3.25084068e-02 1.19419424e-02
      1.54398242e-02 2.79440824e-03 5.25871059e-03 1.51568409e-02
      4.34495151e-01 5.54103374e-01 3.14207345e-01 2.48612817e-02
      2.30689207e-03 3.83954495e-03 1.94116612e-03 1.04989856e-03
      8.79013445e-03 1.36965975e-01 4.33168799e-01 1.13469325e-01
      4.04253183e-03 2.22400180e-03 4.60075244e-04 1.10775661e-02
      5.35489712e-03 1.79802421e-02 1.15196675e-01 4.33168799e-01
      9.10265371e-02 1.43364444e-02 1.30015425e-02 2.97851907e-03 0.
      1.12747432e-04 1.67942920e-03 2.93123096e-01 4.33168799e-01
      2.20460922e-01 5.47403470e-03 1.01235940e-03 9.14668199e-05
      3.83233855e-05 1.52096897e-03 3.64896609e-03 2.09537342e-01
      4.33168799e-01 1.11424789e-01 8.84002075e-03 2.47411290e-03 0.
      1.48632042e-02 5.50004505e-02 1.02629326e-01 2.41385877e-01
      3.12759012e-01 1.25649139e-01 2.56430395e-02 3.04267369e-02
      1.31342094e-02 1.48703113e-01 1.71064705e-01 3.07044059e-01
      2.72196174e-01 1.16652146e-01 3.12838145e-02 6.07313402e-02
      8.86508003e-02 1.85545206e-01 2.10603816e-03 2.84706410e-02
      1.37140751e-01 3.12759012e-01 3.12759012e-01 8.06657150e-02
      5.72344707e-03 3.99458921e-03 2.67115247e-04 8.15018937e-02
      1.01585306e-01 3.12759012e-01 3.12759012e-01 3.00526381e-01
      8.03149398e-03 2.61391979e-03 1.21982843e-02 6.49185926e-02
      3.82464528e-02 1.05830923e-01 1.33466259e-01 3.96020599e-02
      1.63239948e-02 2.63102935e-03 4.27493034e-03 3.79424402e-03
      9.18016769e-03 1.98786989e-01 3.47025871e-01 1.42595783e-01
      1.47160422e-02 4.66039265e-03 1.56096509e-03 4.16150346e-04
      5.42992319e-04 6.12633443e-03 5.50581366e-02 3.14737707e-01
      3.47025871e-01 2.34981492e-01 5.32223582e-02 8.36742949e-03
      4.56466945e-03 2.02569203e-03 2.19596364e-02 3.47025871e-01
      3.47025871e-01 3.47025871e-01 1.42652586e-01 1.84462462e-02
      4.65280609e-04 2.36025062e-06 1.19688317e-04 3.47025871e-01
      2.42735445e-01 1.73982248e-01 2.70247702e-02 7.94338994e-04
      2.84662412e-04 2.49961275e-04 4.09209606e-05 1.76224785e-04
      1.50910458e-02 3.68394643e-01 9.35803801e-02 4.59312135e-03
      6.55342637e-06 0. 0. 0. 3.13694240e-03 1.17729470e-01
      3.97136182e-01 3.30630898e-01 5.90465888e-02 9.67424456e-03
      7.10625143e-04 0. 7.14688285e-05 2.63397727e-04 3.97136182e-01
      3.97136182e-01 6.12357371e-02 3.12313467e-04 0. 1.37591080e-04
      2.13494986e-05 1.38134768e-04 2.08065496e-03 3.97136182e-01
      2.78530359e-01 2.89903805e-02 9.82886413e-04 0. 0. 7.46649093e-05
      8.62191140e-04 2.88245622e-02 2.22682923e-01 1.18230321e-01
      7.05521740e-03 1.25162449e-04 2.21669601e-04 7.44179473e-04
      1.70966722e-02 4.95960452e-02 1.78369954e-01 2.17692405e-01
      3.90069842e-01 7.79250870e-03 1.48864841e-04 2.15664622e-04
      5.48378739e-04 2.52649363e-04 1.80035853e-03 4.07430679e-02
      3.90069842e-01 3.90069842e-01 1.94865349e-03 6.98311051e-05
      8.41317989e-04 1.51897212e-02 6.52518794e-02 1.97597846e-01
      3.42631519e-01 3.90069842e-01 2.09045392e-02 1.33237278e-03
      1.49319880e-03 5.26354928e-03 2.58288272e-02 1.51365802e-01
      2.32832909e-01 2.56234318e-01 1.40008986e-01 3.68139264e-03
      1.12349419e-02 1.37807690e-02 2.70250607e-02 5.52863069e-02
      1.39336303e-01 1.74038798e-01 3.58890668e-02 1.48043316e-02
      3.13008428e-01 3.96123884e-04 2.85190326e-04 9.32561699e-03
      1.70739144e-01 3.13008428e-01 3.13008428e-01 3.13008428e-01
      3.13008428e-01 2.36467645e-02 5.42672072e-03 1.17129656e-02
      4.66126688e-02 2.34831005e-01 3.13008428e-01 3.13008428e-01
      6.71382546e-02 2.04072390e-02 4.35971608e-03 1.62553843e-02
      2.44130436e-02 4.39880453e-02 7.49301314e-02 3.12305391e-02
      4.60794345e-02 1.16481585e-02 9.76117980e-03 1.12333149e-03
      9.62738972e-03 2.65707429e-02 4.37648416e-01 4.96972084e-01
      1.45035580e-01 1.37369772e-02 2.39125616e-03 3.04948771e-03
      7.67952204e-03 1.33212851e-02 4.76639420e-02 6.22399002e-02
      1.28911048e-01 7.26677552e-02 6.21607974e-02 1.55741842e-02
      4.01857216e-03 2.58567370e-03 1.97287984e-02 1.53931946e-01
      4.53576535e-01 4.96972084e-01 1.13367148e-01 2.43046433e-02
      8.27999879e-03 1.76166825e-03 0. 9.40322236e-04 3.86829418e-03
      3.10842425e-01 3.97904187e-01 1.44049242e-01 7.01563573e-03
      1.44469645e-03 1.53795074e-04 0. 2.95563204e-05 7.01168226e-03
      2.36744508e-01 3.97904187e-01 1.03677623e-01 1.23713622e-02
      2.93136900e-03 0. 8.05638119e-05 4.37200442e-03 5.12815155e-02
      2.73193300e-01 3.97904187e-01 1.35451198e-01 1.17071467e-02
      3.66752385e-03 2.15433305e-03 1.77240392e-04 1.47434534e-03
      2.28082091e-02 2.63207912e-01 3.97904187e-01 1.11262038e-01
      1.57941505e-02 5.37442369e-03 4.66145156e-03 0. 8.81727901e-04
      5.53503260e-02 3.48025769e-01 3.48025769e-01 3.73411216e-02
      4.30520531e-03 9.93981841e-04 0. 8.52393080e-03 1.84130110e-02
      1.13176949e-01 3.48025769e-01 3.48025769e-01 1.42672276e-02
      2.28933897e-03 7.65056873e-04 3.50257452e-03 6.00994827e-05
      3.26487422e-03 6.88680708e-02 3.48025769e-01 3.48025769e-01
      3.58023569e-02 4.63903928e-03 1.67629309e-03 1.58062624e-03
      3.54950875e-03 2.13309145e-03 5.29806726e-02 3.48025769e-01
      3.48025769e-01 2.64802147e-02 5.03654592e-03 1.68312516e-03
      3.32322903e-03 7.18520656e-02 1.04742922e-01 2.21936062e-01
      1.93397790e-01 9.24853906e-02 7.29521662e-02 4.49347235e-02
      2.67568994e-02 1.01219825e-01 2.44306251e-01 2.44306251e-01
      2.44306251e-01 1.72946632e-01 6.77365512e-02 9.40206572e-02
      6.74103349e-02 8.19661245e-02 2.44306251e-01 1.45957679e-01
      3.07454504e-02 9.05413628e-02 1.29579678e-01 2.44306251e-01
      1.82149529e-01 1.62877619e-01 9.54913497e-02 2.44306251e-01
      1.76244274e-01 6.10428080e-02 1.06854089e-01 1.25251129e-01
      2.44306251e-01 1.96203560e-01 2.44306251e-01 2.44306251e-01
      2.44306251e-01 3.45370561e-01 1.13841154e-01 4.75925282e-02
      2.09548157e-02 3.96935735e-03 1.37944426e-02 1.18918512e-02
      2.75289826e-02 3.45370561e-01 3.45370561e-01 9.08878166e-03
      6.10067393e-04 0. 3.18883802e-04 4.94800333e-05 3.20143910e-04
      1.22744963e-03 3.45370561e-01 3.45370561e-01 2.38827597e-02
      1.85316019e-02 1.55675355e-02 1.19959088e-02 2.32646987e-02
      6.03538640e-02 1.40489802e-01 3.45370561e-01 3.45370561e-01
      1.37795648e-02 4.74496919e-04 0. 3.63947055e-03 3.84844716e-05
      2.49000819e-04 4.90318425e-03 3.45370561e-01 3.40222478e-01
      6.44682616e-04 3.13397526e-04 4.54027730e-04 1.15447352e-03
      5.31889789e-04 9.37112316e-04 6.31746836e-03 3.40222478e-01
      3.40222478e-01 3.65459882e-02 3.92294489e-02 9.62313451e-03
      2.74615958e-02 4.14601564e-02 1.12097487e-01 1.05289742e-01
      3.40222478e-01 3.40222478e-01 2.16257311e-02 1.30714208e-03
      3.53132607e-04 3.67810857e-03 4.13692062e-04 3.94677394e-04
      1.06383101e-04 3.40222478e-01 3.40222478e-01 2.35802203e-01
      1.14912964e-01 2.49413587e-02 3.36117782e-02 2.23515518e-02
      3.65036055e-02 1.78239271e-02 2.89850891e-01 2.47608066e-01
      8.58719945e-02 1.42893851e-01 5.27526475e-02 2.17779458e-01
      2.47608066e-01 2.47608066e-01 1.81201085e-01 2.47608066e-01
      1.89179853e-02 2.00484395e-02 6.02052361e-02 6.49427176e-02
      2.42803395e-01 2.08362058e-01 1.27400428e-01 2.94060018e-02
      1.27686458e-02 2.47608066e-01 2.47608066e-01 2.47608066e-01
      1.76509187e-01 2.47608066e-01 1.54061735e-01 1.26361474e-01
      3.64613235e-02 1.16277613e-01 2.56866626e-02 6.98628202e-02
      2.19703168e-01 2.16499954e-01 2.47608066e-01 1.34126872e-01
      4.61580791e-02 9.81808547e-03 8.02973378e-03 2.41628457e-02
      1.38335228e-02 5.38782626e-02 1.02774918e-01 1.49578854e-01
      6.80765137e-02 3.00196968e-02 2.37239264e-02 1.95248742e-02
      1.14665190e-02 3.03983260e-02 3.07015687e-01 3.07015687e-01
      3.07015687e-01 1.26253754e-01 7.70023689e-02 3.24349552e-02
      7.24304328e-03 2.91592032e-02 1.68022271e-02 6.93331882e-02
      1.78383231e-01 2.43095323e-01 8.42567384e-02 6.33893609e-02
      3.45211960e-02 2.64251698e-02 1.72923319e-02 3.05033885e-02
      3.07015687e-01 3.07015687e-01 3.07015687e-01 3.07015687e-01
      3.07015687e-01 2.54060984e-01 1.00024883e-02 2.05293368e-03
      1.51473330e-02 2.03429237e-01 2.95080870e-01 2.95080870e-01
      1.74168482e-01 5.75145818e-02 2.69670058e-02 7.66477361e-03
      4.61200625e-03 7.02317199e-03 3.51411551e-02 1.80306330e-01
      2.95080870e-01 1.54153168e-01 2.84956265e-02 1.71162933e-02
      1.68625023e-02 3.02983192e-03 1.50964353e-02 2.67384946e-01
      2.21090689e-01 2.95080870e-01 2.95080870e-01 2.95080870e-01
      2.30537683e-01 1.47448769e-02 8.09891429e-03 1.11819524e-02
      4.92958762e-02 2.15056896e-01 2.95080870e-01 1.49853155e-01
      6.09798692e-02 5.10086939e-02 3.00623681e-02 1.43060891e-03
      1.07639143e-02 5.48147298e-02 3.42071652e-01 3.42071652e-01
      8.62488598e-02 5.56051498e-03 3.87058221e-03 5.09161456e-03
      4.32831608e-03 3.82048800e-03 3.03901099e-02 3.42071652e-01
      3.42071652e-01 4.68788221e-02 4.42626188e-03 4.11402609e-04
      3.86609370e-03 3.45663214e-03 2.56158262e-02 1.13867722e-01
      3.42071652e-01 3.42071652e-01 1.18498355e-01 3.61181684e-02
      8.97843018e-03 8.70558247e-03 1.35447131e-02 2.88518760e-02
      1.02969155e-01 3.42071652e-01 3.42071652e-01 6.87089115e-02
      3.38051319e-02 0. 6.04451168e-03</_>
    <_>
      2.92502381e-02 9.66064483e-02 2.30295733e-01 1.75805703e-01
      9.51975062e-02 4.96148579e-02 3.45049463e-02 1.45926597e-02
      1.92170851e-02 2.77068436e-01 2.77068436e-01 2.77068436e-01
      2.07529232e-01 9.89004746e-02 6.76359981e-02 1.03038698e-01
      6.39710650e-02 2.77068436e-01 8.41924269e-03 2.74572577e-02
      1.00728936e-01 1.37168527e-01 1.57240599e-01 1.43565699e-01
      1.77674398e-01 1.21254809e-01 3.85058746e-02 2.77068436e-01
      1.02532864e-01 1.13220483e-01 1.54424921e-01 1.23133704e-01
      1.35339588e-01 2.77068436e-01 2.77068436e-01 2.77068436e-01
      3.53439182e-01 2.16237292e-01 4.48911674e-02 2.27480810e-02
      1.06343580e-02 6.63238438e-03 1.91236120e-02 1.60830300e-02
      2.66260535e-01 3.53439182e-01 1.25476554e-01 2.88194395e-03 0.
      1.14437297e-03 0. 0. 5.43548027e-04 3.01494360e-01 3.53439182e-01
      4.55011763e-02 1.36280488e-02 1.73369385e-02 8.50440562e-03
      9.19574499e-03 3.82831097e-02 1.18851326e-01 3.53439182e-01
      3.53439182e-01 3.15009244e-02 0. 0. 0. 0. 0. 5.97914029e-03
      3.53439182e-01 3.81373018e-01 1.05248250e-01 9.18460573e-05 0.
      1.10696664e-03 0. 0. 1.66546844e-03 2.83261567e-01 3.81373018e-01
      1.81700677e-01 2.22828612e-02 3.01144784e-03 3.58795444e-03 0.
      7.78240938e-05 1.76681615e-02 3.49912256e-01 3.81373018e-01
      9.14914384e-02 2.02061317e-04 0. 0. 0. 0. 6.21156883e-04
      2.05492765e-01 3.81373018e-01 3.21140766e-01 3.73921804e-02
      2.02304334e-03 1.41339866e-03 0. 0. 6.81949256e-04 1.08033217e-01
      2.92686909e-01 2.92686909e-01 2.21947774e-01 9.00394022e-02
      6.83931112e-02 9.98750553e-02 5.53327985e-02 1.18093342e-01
      2.92686909e-01 1.56559363e-01 1.13179676e-01 2.22449362e-01
      1.36654377e-01 1.94272608e-01 2.31907129e-01 1.20906405e-01
      1.28549427e-01 1.21853106e-01 2.92686909e-01 2.92686909e-01
      2.38179728e-01 8.11815709e-02 3.79009433e-02 2.16135159e-02
      4.20043431e-03 2.49961880e-03 6.73588887e-02 6.54630139e-02
      1.97350949e-01 2.40260258e-01 1.97316483e-01 1.51011258e-01
      6.35259002e-02 1.25158941e-02 2.66327220e-03 6.78609824e-03
      2.24361271e-02 2.34673657e-02 1.45747975e-01 1.97139040e-01
      2.86849946e-01 2.86849946e-01 2.86849946e-01 2.41414368e-01
      6.18207864e-02 3.27638499e-02 3.34340036e-02 3.56389545e-02
      8.16467851e-02 2.86849946e-01 1.82702869e-01 2.86849946e-01
      1.40424848e-01 4.75817844e-02 7.44570186e-03 6.24058209e-02
      2.31134832e-01 2.86849946e-01 2.86849946e-01 1.79820523e-01
      7.39656389e-02 2.24449281e-02 9.00151581e-03 1.48970084e-02
      4.03300114e-02 4.85755280e-02 1.79423600e-01 2.86849946e-01
      1.01963833e-01 7.19412789e-02 4.35614027e-02 2.19351053e-02
      5.04586659e-03 8.01198278e-03 1.38132274e-02 8.56827274e-02
      3.73158067e-01 2.05110565e-01 1.94259033e-01 4.94784936e-02
      5.89548610e-03 3.22848000e-03 1.32108396e-02 6.16441853e-02
      3.73158067e-01 3.73158067e-01 1.80159345e-01 8.71273354e-02
      2.25337408e-02 0. 1.77352363e-03 3.84257594e-03 9.50387586e-03
      1.17658943e-01 3.73158067e-01 7.56469145e-02 1.04998909e-02
      6.24070503e-03 2.98126484e-03 3.28394934e-03 6.82537444e-03
      5.20389974e-02 3.73158067e-01 3.73158067e-01 6.11139089e-02
      1.96176628e-03 4.79882787e-04 6.81958627e-04 1.80486646e-02
      5.99559769e-02 2.10097060e-01 3.09052199e-01 3.06497335e-01
      7.36818239e-02 9.06408504e-02 4.89431210e-02 3.99408536e-03
      1.99783854e-02 4.44215424e-02 7.41601065e-02 9.58528742e-02
      2.93425024e-01 3.09052199e-01 1.96598262e-01 8.27270001e-02
      2.73324512e-02 2.91250553e-02 5.13541438e-02 2.08895087e-01
      3.09052199e-01 3.09052199e-01 1.34332985e-01 7.40492940e-02
      2.46750917e-02 7.37987272e-03 2.94091348e-02 3.57718654e-02
      7.68679306e-02 8.13197494e-02 3.09052199e-01 3.09052199e-01
      1.67765081e-01 4.35504839e-02 1.87625065e-02 8.19155201e-03
      1.95632176e-03 1.77211538e-02 4.60402407e-02 1.32053047e-01
      2.06565708e-01 3.57185930e-01 3.03935558e-01 6.62461072e-02
      1.43579021e-01 0. 2.30534934e-03 1.80699062e-02 6.18620217e-02
      1.52653843e-01 3.57185930e-01 3.57185930e-01 3.57185930e-01
      6.80379337e-03 1.22356915e-03 1.97332446e-02 2.15428174e-02
      4.55766656e-02 6.87575042e-02 1.22043066e-01 8.52201506e-02
      3.63394618e-02 4.18642759e-02 3.08091589e-03 7.57010747e-03
      6.18929183e-03 1.49514265e-02 5.53703941e-02 1.46182984e-01
      3.50241274e-01 3.13497543e-01 3.38620007e-01 5.69082913e-04 0.
      4.03699960e-04 1.99626386e-03 5.72629040e-03 4.34358120e-02
      3.33219081e-01 3.56185406e-01 3.56185406e-01 2.21502744e-02 0. 0.
      0. 0. 0. 3.23920771e-02 3.56185406e-01 8.55196342e-02
      4.12181392e-03 1.65799411e-03 3.05310794e-04 4.69185907e-04
      2.85989093e-03 1.32940449e-02 1.42910555e-01 3.44134957e-01
      3.33406299e-01 2.92491745e-02 1.33553124e-03 1.40196178e-04
      1.79529143e-03 5.97252103e-04 2.15831376e-03 3.75597849e-02
      3.56185406e-01 3.91867429e-01 1.15182616e-01 1.37212308e-04 0. 0.
      0. 0. 5.14557352e-04 3.40575755e-01 3.91867429e-01 3.91867429e-01
      4.95227240e-02 1.89945265e-03 5.91690128e-04 0. 0. 1.31555542e-04
      8.73733237e-02 3.91867429e-01 4.90303487e-02 2.13294523e-03
      3.90866422e-04 4.35947813e-03 1.22721971e-03 1.92008179e-03
      7.88800232e-03 2.06469670e-01 3.77817512e-01 2.17891261e-01
      2.30205730e-02 2.06392561e-03 2.19587656e-03 1.42088777e-03
      1.28965708e-03 6.44866284e-03 8.10143277e-02 3.53452235e-01
      3.53452235e-01 3.53452235e-01 7.60081932e-02 1.45662818e-02
      1.58881958e-04 0. 0. 2.90951785e-02 3.68295200e-02 3.53452235e-01
      3.53452235e-01 2.80757070e-01 1.08928882e-01 2.81787594e-03
      4.70622763e-04 0. 4.59519401e-03 2.14685112e-01 3.53452235e-01
      1.51954442e-01 1.97678152e-02 1.79017317e-02 4.67856973e-03
      7.54352612e-03 3.27660004e-03 1.58058852e-02 4.16985005e-02
      2.01721266e-01 1.69330403e-01 5.32183163e-02 5.74982725e-02
      1.49182202e-02 1.55278593e-02 4.08233749e-03 5.83197596e-03
      6.48591369e-02 1.71818510e-01 3.33860517e-01 3.33860517e-01
      3.33860517e-01 3.38474102e-02 2.03968566e-02 9.29061696e-03
      2.14613676e-02 3.32775228e-02 6.66068196e-02 6.91920742e-02
      3.30891788e-01 3.33860517e-01 9.02390033e-02 6.30028769e-02
      4.79460210e-02 2.37544235e-02 1.13230154e-01 1.65747046e-01
      1.95113361e-01 1.51907295e-01 1.98080614e-01 4.09144424e-02
      4.85012420e-02 3.13683823e-02 5.09078316e-02 5.73392957e-02
      7.48416781e-02 1.01374045e-01 2.82574922e-01 3.33860517e-01
      6.87354952e-02 5.92604540e-02 8.03505704e-02 8.20591748e-02
      1.48843997e-03 4.02327441e-03 4.25136229e-03 1.06354460e-01
      3.98275793e-01 1.94029249e-02 4.29715449e-03 3.14055686e-03
      1.48099568e-03 1.50705338e-03 5.16382558e-03 3.40681821e-02
      3.98275793e-01 3.98275793e-01 1.12985065e-02 6.37101126e-04
      1.54017878e-03 1.53817283e-03 1.85744010e-03 6.42186636e-03
      9.55997314e-03 1.72018230e-01 3.98275793e-01 1.22210896e-02
      3.90504673e-03 4.78931842e-03 4.36091563e-03 2.93604261e-03
      6.53570611e-03 3.41283269e-02 3.98275793e-01 3.98275793e-01
      6.54667150e-03 1.41084020e-03 2.43858201e-03 1.64411089e-03
      1.54244341e-02 3.91318910e-02 1.65900171e-01 3.23289931e-01
      3.23289931e-01 1.36131719e-01 5.82747161e-02 2.57340129e-02
      1.72556154e-02 1.94117427e-02 2.30993889e-02 5.57275079e-02
      5.59458360e-02 3.23289931e-01 3.23289931e-01 1.37281582e-01
      5.19500487e-02 3.31296846e-02 1.99019108e-02 3.92906889e-02
      1.44354805e-01 3.23289931e-01 3.23289931e-01 1.39704823e-01
      9.03503895e-02 3.94575112e-02 1.96694434e-02 1.80680659e-02
      2.35003997e-02 4.54990007e-02 4.86113131e-02 2.37940297e-01
      3.23289931e-01 2.36027166e-01 1.02748863e-01 5.08960150e-02
      3.00639234e-02 2.58751735e-02 1.10925928e-01 7.34275877e-02
      1.50595725e-01 2.08021581e-01 2.70162851e-01 2.68301129e-01
      1.33474112e-01 1.64268866e-01 6.52106181e-02 1.20972119e-01
      3.19625176e-02 9.94593799e-02 1.89208463e-01 2.70162851e-01
      2.70162851e-01 2.70162851e-01 1.12881489e-01 4.62726988e-02
      1.24631681e-01 6.49055466e-02 1.66161522e-01 1.45173371e-01
      1.43653765e-01 1.77402467e-01 1.86121017e-01 9.81787965e-02
      6.10416234e-02 1.47712752e-01 5.70435040e-02 1.37797460e-01
      1.31172538e-01 2.57007539e-01 2.70162851e-01 2.32389063e-01
      2.77611703e-01 7.97860771e-02 9.11455527e-02 1.09180911e-02
      2.54718903e-02 3.94989997e-02 7.24287629e-02 3.53632718e-01
      3.53632718e-01 3.53632718e-01 2.24936083e-01 4.39104624e-02
      1.02512073e-02 9.52727571e-02 7.06669092e-02 1.21756062e-01
      3.16789806e-01 3.53632718e-01 8.32259208e-02 5.93156852e-02
      1.09431736e-01 2.39349455e-02 7.06433132e-02 4.68789414e-02
      1.12560809e-01 1.16143569e-01 1.45286083e-01 6.99883252e-02
      6.39666319e-02 7.67196044e-02 3.74486782e-02 1.91551328e-01
      1.03758626e-01 1.67172819e-01 1.51057124e-01 1.51976079e-01
      3.26018184e-01 2.59593815e-01 4.29415964e-02 3.23788226e-02
      1.33818895e-01 7.72138536e-02 1.06230184e-01 1.68980435e-01
      3.26018184e-01 3.26018184e-01 3.26018184e-01 1.06370874e-01
      2.40852311e-02 8.03861693e-02 6.35056496e-02 7.02932701e-02
      1.24630325e-01 3.26018184e-01 4.06206436e-02 8.13374966e-02
      8.30880925e-02 6.76930994e-02 1.85305595e-01 1.37613043e-01
      2.01856166e-01 1.49782032e-01 1.16142474e-01 1.22228652e-01
      1.28969148e-01 6.01777621e-02 3.91529575e-02 8.44570249e-02
      9.44052935e-02 1.68250710e-01 1.63234487e-01 1.76142618e-01
      2.59491622e-01 2.59491622e-01 2.18093082e-01 4.56760898e-02
      1.04509041e-01 7.54626915e-02 1.49665236e-01 7.26693049e-02
      1.04873702e-01 6.95668831e-02 2.09711358e-01 1.65037483e-01
      1.37923658e-01 2.43981615e-01 2.17311412e-01 2.59491622e-01
      8.26667771e-02 2.86137797e-02 1.11869536e-01 6.96671307e-02
      3.20328362e-02 1.29504865e-02 8.82975981e-02 1.59623772e-01
      2.59491622e-01 2.21846774e-01 1.88594297e-01 8.22885260e-02
      3.72318476e-02 4.15684693e-02 6.82042986e-02 2.00940594e-01
      2.59491622e-01 2.59491622e-01 2.47269586e-01 1.62121251e-01
      5.85626662e-02 6.05657734e-02 7.08323196e-02 8.59644488e-02
      1.08295761e-01 1.43396214e-01 2.06122801e-01 7.86266327e-02
      4.84716929e-02 7.98570663e-02 7.00375438e-02 1.14913635e-01
      2.24328846e-01 3.90776575e-01 1.22042842e-01 9.89091396e-02
      7.25817233e-02 1.06958494e-01 6.61588609e-02 3.50925662e-02
      3.04737892e-02 4.37361412e-02 8.79248306e-02 1.88724488e-01
      3.07278037e-01 2.78455794e-01 1.86048180e-01 8.82575512e-02
      6.04553670e-02 4.99313250e-02 2.12037310e-01 3.90776575e-01
      1.43932596e-01 1.99208781e-01 2.18280464e-01 2.15313137e-01
      2.11040652e-03 3.84547515e-03 7.54307210e-03 1.06353842e-01
      4.28330094e-01 2.14227289e-02 2.05813861e-03 2.18058052e-03
      3.31967464e-03 3.32259829e-03 4.09616064e-03 1.41888019e-02
      3.42040330e-01 4.28330094e-01 1.75590944e-02 2.19944352e-03
      2.21086945e-03 1.33889331e-03 2.47461163e-03 2.60724616e-03
      4.47874889e-03 9.72240344e-02 4.28330094e-01 4.60795686e-02
      5.06300060e-03 4.03493177e-03 4.19364450e-03 2.25573941e-03
      9.11066495e-03 3.53615545e-02 3.34149390e-01 4.28330094e-01
      8.63177180e-02 1.69275682e-02 2.32075318e-03 6.52589928e-03
      3.57703343e-02 4.43464555e-02 7.37359971e-02 3.51635784e-01
      3.51635784e-01 8.65818709e-02 8.80355984e-02 5.52504659e-02
      2.15501636e-02 3.35766859e-02 4.37298790e-02 3.48442532e-02
      5.23467436e-02 1.90864369e-01 3.24782610e-01 2.16116533e-01
      1.25064909e-01 4.48457934e-02 3.41519378e-02 9.18128267e-02
      1.26868695e-01 3.51635784e-01 3.51635784e-01 1.43868685e-01
      1.11175820e-01 6.08444586e-02 5.07160164e-02 6.13715015e-02
      1.00609556e-01 5.49530312e-02 5.94365858e-02 1.99986905e-01
      2.99781442e-01 1.54232562e-01 1.33621693e-01 6.48998842e-02
      1.61909878e-01 6.41580001e-02 8.09937194e-02 4.19095159e-02
      1.47137910e-01 1.21645734e-01 1.82431936e-01 2.23680735e-01
      2.47063622e-01 8.17826092e-02 4.77595925e-02 1.05767168e-01
      4.12882604e-02 1.26408458e-01 1.55967832e-01 2.47063622e-01
      2.47063622e-01 2.47063622e-01 7.59964138e-02 1.10911638e-01
      1.15519859e-01 5.57864569e-02 2.47063622e-01 1.78562552e-01
      2.44596153e-01 1.46660432e-01 1.15665302e-01 3.01596746e-02
      1.49947986e-01 2.47063622e-01 1.81395382e-01 2.47063622e-01
      2.11117074e-01 2.47063622e-01 1.36583284e-01 8.93049240e-02
      6.42882213e-02 4.37657982e-02 1.48299381e-01 1.05683260e-01
      9.99505147e-02 7.39680156e-02 1.82282954e-01 1.55310020e-01
      1.29209712e-01 8.56694654e-02 1.22418985e-01 2.82344162e-01
      2.11367667e-01 1.83959588e-01 6.01405799e-02 9.96378884e-02
      9.46823433e-02 1.02672115e-01 2.33810395e-02 2.19031483e-01
      2.89086878e-01 2.89086878e-01 2.32472673e-01 9.64471698e-02
      1.33520409e-01 8.10293555e-02 5.04970253e-02 2.04462036e-01
      2.89086878e-01 2.89086878e-01 2.89086878e-01 2.19900697e-01
      2.03427076e-02 2.80239619e-02 6.00278042e-02 5.61607145e-02
      8.69214833e-02 1.69458464e-01 2.88565755e-01 1.28922254e-01
      1.15839645e-01 7.72147402e-02 1.06070459e-01 6.27998486e-02
      7.38319382e-02 2.20076606e-01 1.63031757e-01 1.59460396e-01
      6.68038577e-02 3.20539549e-02 5.76461330e-02 1.22437984e-01
      1.12334460e-01 2.19011098e-01 2.88565755e-01 2.88565755e-01
      2.88565755e-01 1.56691596e-01 1.02001376e-01 1.50071876e-02
      1.32394088e-02 3.69741060e-02 1.10513613e-01 2.88565755e-01
      2.88565755e-01 1.96501985e-01 5.01423888e-02 2.57181544e-02
      6.10031821e-02 7.27118552e-02 1.91680342e-01 2.88565755e-01
      1.64569706e-01 5.88144436e-02 3.28954384e-02 2.09752116e-02
      4.23418432e-02 1.38520584e-01 2.21313626e-01 1.89972058e-01
      2.21917480e-01 1.50659695e-01 3.78447697e-02 1.98430959e-02
      1.95041914e-02 1.28640354e-01 2.45058134e-01 2.45058134e-01
      2.45058134e-01 2.45058134e-01 2.45058134e-01 7.27811158e-02
      6.68402463e-02 5.83254695e-02 6.66568503e-02 1.77740172e-01
      1.97668895e-01 2.32521906e-01 2.45058134e-01 1.09018810e-01
      2.36956384e-02 5.96695580e-02 4.45424505e-02 2.05309004e-01
      2.45058134e-01 2.45058134e-01 2.40512028e-01 1.67268321e-01
      9.55242142e-02 3.36653069e-02 2.05968749e-02 1.95394456e-02
      8.52749497e-02 1.17900074e-01 2.04380199e-01 3.13023150e-01
      2.22169578e-01 7.09199086e-02 3.56377773e-02 2.09263712e-02
      1.44554168e-01 3.32379341e-01 1.88942596e-01 1.84537709e-01
      2.25583002e-01 2.01319128e-01 6.78146631e-02 2.35263761e-02
      3.42765301e-02 3.14902887e-02 1.98774159e-01 2.91767925e-01
      2.24434614e-01 1.63718060e-01 9.73042622e-02 7.15987384e-02
      5.02742268e-02 3.97761613e-02 1.05851337e-01 3.32379341e-01
      2.49676168e-01 1.96246281e-01 1.25942290e-01 9.90881100e-02
      2.26300792e-03 1.94427173e-03 1.73400261e-03 6.61249235e-02
      4.48589623e-01 6.60039559e-02 6.76818611e-03 4.71627247e-03
      4.49715834e-03 2.87094270e-03 1.47422384e-02 3.99680100e-02
      1.89166576e-01 4.48589623e-01 1.46789804e-01 3.39806415e-02
      6.07630936e-03 6.35545375e-03 2.04955693e-03 2.16175010e-03
      1.79750612e-03 5.44516593e-02 4.48589623e-01 1.14253044e-01
      9.57595278e-03 6.43784693e-03 3.44854523e-03 3.10649071e-02
      5.01535945e-02 4.58619036e-02 1.57493576e-01 4.48589623e-01
      2.65705496e-01 4.22352776e-02 4.58256789e-02 1.80584416e-02
      2.96718292e-02 1.11299440e-01 1.69585362e-01 2.22548649e-01
      3.11707556e-01 1.75320596e-01 9.54940543e-02 4.11672816e-02
      3.02433521e-02 4.35910597e-02 9.26666707e-02 8.09458271e-02
      7.37917051e-02 2.14801967e-01 1.86556980e-01 7.22927153e-02
      8.42958614e-02 3.55506949e-02 1.11574531e-01 2.73483366e-01
      2.60443777e-01 2.30802000e-01 3.11707556e-01 2.88106799e-01
      1.14628941e-01 9.90531370e-02 5.37037514e-02 5.10400347e-02
      1.37775198e-01 1.25525773e-01 1.80775478e-01 3.11707556e-01
      2.39312321e-01 7.73485377e-02 5.57514317e-02 2.80574020e-02
      4.94113080e-02 1.15979113e-01 9.44970846e-02 3.94987054e-02
      1.23645745e-01 9.62776989e-02 9.83678102e-02 4.44583707e-02
      4.56630774e-02 5.74879572e-02 2.40772441e-01 3.12347025e-01
      2.00277612e-01 2.03287929e-01 6.45971224e-02 8.85489881e-02
      2.89131682e-02 3.80458012e-02 2.06867501e-01 3.50368947e-01
      3.50368947e-01 1.08635768e-01 5.78003712e-02 4.96282615e-02
      5.78525476e-02 4.68360223e-02 7.41246492e-02 2.51646787e-01
      3.50368947e-01 3.50368947e-01 2.03665912e-01 7.58378953e-02
      1.45011432e-02 2.06326377e-02 1.63170826e-02 5.76388016e-02
      5.65548427e-02 1.68931618e-01 1.68832332e-01 1.08865373e-01
      5.44487350e-02 9.72098950e-03 1.55176902e-02 1.02687655e-02
      1.05008604e-02 2.62368023e-01 3.13615382e-01 1.43835768e-01
      7.97291026e-02 4.50224355e-02 1.38597970e-04 1.46787730e-03
      3.96101549e-03 1.19317127e-02 2.30268613e-01 3.60730261e-01
      3.60730261e-01 1.24433376e-01 3.08825709e-02 1.04684604e-03
      3.80610675e-03 4.99272300e-03 8.54080543e-03 3.60730261e-01
      3.60730261e-01 3.43452483e-01 5.36315329e-02 1.49397952e-02 0.
      5.52269688e-04 1.39630085e-03 1.14988811e-01 2.71738112e-01
      2.33100101e-01 6.02397360e-02 2.13093609e-02 2.33383421e-02
      8.74010511e-05 2.95852864e-04 3.54803866e-03 4.35964763e-02
      2.44286209e-01 1.21637031e-01 2.10343674e-02 2.86787166e-03
      7.17045972e-03 1.42239686e-02 4.23942246e-02 1.21650457e-01
      1.69902995e-01 3.91642541e-01 2.96454191e-01 4.52030897e-02
      4.72950516e-03 4.49135713e-03 0. 1.02550221e-05 1.03449065e-03
      2.76863813e-01 3.91642541e-01 9.62278917e-02 3.21078161e-03
      4.47733037e-04 1.28495437e-03 5.05641149e-03 4.83479239e-02
      3.19872081e-01 3.91642541e-01 9.21333134e-02 2.50910334e-02
      1.82213970e-02 1.72231551e-02 2.11867094e-02 5.63110448e-02
      1.43479094e-01 2.52588511e-01 1.39118448e-01 1.39822559e-02
      1.11511610e-02 2.08588690e-02 2.18502302e-02 5.01362532e-02
      1.22977212e-01 1.47915930e-01 1.58111915e-01 4.16970402e-02
      2.85900563e-01 1.58785321e-02 4.05478990e-03 4.00642119e-03
      3.94551270e-03 2.02268139e-02 3.09135795e-01 3.68655890e-01
      3.68655890e-01 3.48710082e-02 8.01352784e-03 5.66941127e-03
      6.35756506e-03 1.64169334e-02 1.27513200e-01 3.68655890e-01
      3.68655890e-01 2.68698037e-01 4.29297090e-02 2.77594812e-02
      1.42603926e-02 1.60331838e-02 1.22267447e-01 2.26812616e-01
      2.00384781e-01 1.52126819e-01 5.65284379e-02 5.48976548e-02
      6.93743378e-02 3.86686437e-02 6.10507987e-02 3.23428124e-01
      1.66841239e-01 1.38832748e-01 1.04129642e-01 5.25454357e-02
      6.68923184e-02 2.44754106e-02 5.74589940e-03 1.20000821e-02
      1.34045780e-01 3.23428124e-01 3.23428124e-01 3.23428124e-01
      1.92441225e-01 4.06035446e-02 4.83784862e-02 6.09771498e-02
      8.89113247e-02 3.23428124e-01 3.23428124e-01 2.03651547e-01
      2.00360641e-01 4.39034477e-02 1.65469747e-03 3.08496575e-03
      3.31578078e-03 3.14007439e-02 4.27281618e-01 1.00066975e-01
      8.11648369e-03 7.25035323e-03 2.84755277e-03 4.43996899e-02
      6.88272640e-02 4.68620211e-02 1.17189698e-01 4.27281618e-01
      2.38965034e-01 2.04049014e-02 4.13543507e-02 2.13813763e-02
      6.40128099e-04 2.30337633e-03 6.13558665e-03 3.38004716e-02
      4.27281618e-01 1.32252738e-01 7.25049945e-03 6.79093320e-03
      1.18931755e-03 1.78962126e-02 2.52321698e-02 7.27272108e-02
      2.77476728e-01 4.27281618e-01 2.63910472e-01 6.25994615e-03
      1.45198898e-02 7.95139186e-03 8.21469352e-02 1.75896317e-01
      1.05022803e-01 1.17912613e-01 3.41515243e-01 2.09714696e-01
      4.04161587e-02 4.20668423e-02 3.53184529e-02 2.70547327e-02
      6.61754757e-02 3.94625776e-02 7.85551891e-02 3.41515243e-01
      1.79710135e-01 3.19813341e-02 1.56643596e-02 2.14399062e-02
      4.72529940e-02 6.49784282e-02 1.38067126e-01 3.08828861e-01
      3.41515243e-01 3.41515243e-01 2.31389217e-02 3.79123613e-02
      1.98130850e-02 2.51559913e-02 2.51651779e-02 5.51083535e-02
      9.86335278e-02 3.41515243e-01 3.41515243e-01 2.01298613e-02
      2.43863408e-02 1.96860880e-02 3.29820141e-02 1.04430459e-01
      1.09909721e-01 3.91591527e-02 9.86808538e-03 9.26541921e-04
      1.01478456e-03 1.59745710e-03 4.12910990e-03 9.02507454e-02
      3.82238299e-01 1.94744512e-01 1.83946118e-02 3.09340749e-03
      1.03930368e-04 1.56140115e-04 1.88743245e-04 5.18581877e-03
      2.44509894e-02 2.24013418e-01 3.82238299e-01 2.50975400e-01
      3.97265404e-02 3.54031690e-05 0. 4.78842820e-04 2.54538516e-03
      3.82238299e-01 3.82238299e-01 3.82238299e-01 2.72766173e-01
      3.92049775e-02 1.71165564e-04 0. 2.68335625e-05 4.67707366e-02
      1.11161053e-01 2.73953199e-01 9.54325199e-02 7.48013053e-03
      1.84388575e-03 0. 0. 4.10033972e-04 7.07112206e-03 3.83760899e-01
      2.37388536e-01 4.90735322e-02 3.70471575e-03 6.89870620e-04 0. 0.
      1.46105676e-03 5.40076010e-02 3.83760899e-01 3.83760899e-01
      1.90900460e-01 3.54190581e-02 4.96595027e-03 2.18678601e-04 0.
      2.08973698e-03 9.46465507e-02 3.83760899e-01 3.83760899e-01
      2.24167332e-02 9.34845477e-04 1.97594141e-04 2.94544676e-04
      9.54033312e-05 5.86021366e-03 2.32943699e-01 3.93582225e-01
      6.06340207e-02 4.18657111e-03 1.06968291e-04 0. 0. 0.
      3.02234455e-03 1.22041352e-01 3.93582225e-01 6.90400787e-03 0. 0.
      0. 0. 2.15832656e-03 4.81349118e-02 2.93455422e-01 3.93582225e-01
      1.12671286e-01 9.18262231e-04 5.11692779e-04 3.98943841e-04
      6.63545274e-04 7.20448210e-04 8.00000038e-03 3.17972511e-01
      3.93582225e-01 4.66652215e-03 5.26423624e-04 6.00742584e-04
      1.44353427e-03 9.99194919e-04 1.82350713e-03 2.35387012e-02
      3.93582225e-01 2.55205125e-01 6.93369831e-04 0. 0. 7.76666184e-06
      3.07982997e-03 4.91148345e-02 2.19364509e-01 2.78448164e-01
      6.84247240e-02 6.92543763e-05 1.43512996e-04 1.25199300e-03
      3.44819715e-03 5.99717945e-02 1.61554024e-01 2.52244025e-01
      1.02919154e-01 2.98466504e-01 1.79616082e-02 1.80224590e-02
      5.25864214e-03 2.26230435e-02 3.58547904e-02 1.06550328e-01
      2.34656766e-01 2.98466504e-01 2.61909455e-01 3.77719812e-02
      6.59815669e-02 5.09063192e-02 2.10758641e-01 2.98466504e-01
      2.98466504e-01 2.98466504e-01 2.43951827e-01 1.18046533e-02
      2.58130138e-03 6.59989566e-03 2.27920879e-02 5.08299172e-02
      2.42616221e-01 3.29668909e-01 1.98695183e-01 4.14221734e-02
      2.48847646e-03 9.17153899e-03 2.01519597e-02 4.08313088e-02
      2.05703646e-01 1.51878268e-01 6.07654452e-02 2.19922755e-02
      3.22086480e-03 2.21816935e-02 5.00506125e-02 1.37440681e-01
      2.23803192e-01 3.29668909e-01 3.29668909e-01 3.29668909e-01
      3.29668909e-01 6.96709156e-02 1.51962126e-02 6.19034022e-02
      1.58431247e-01 2.16274843e-01 2.86531776e-01 2.04161078e-01
      3.97921167e-02 5.29232575e-03 7.43456557e-03 1.16516210e-04
      2.52947328e-03 5.92462579e-03 4.40543480e-02 3.96750301e-01
      9.36816856e-02 4.08625370e-03 2.59823073e-03 3.90883331e-04
      1.78430416e-03 8.41753441e-04 2.63697524e-02 1.94520786e-01
      3.96750301e-01 1.71566114e-01 6.46718591e-03 8.19328707e-03
      1.78546528e-03 3.08645586e-03 1.44826919e-02 1.10949747e-01
      2.85464615e-01 3.96750301e-01 5.70424907e-02 2.41339346e-03
      1.84904702e-03 1.91624684e-03 9.39427351e-04 3.41170258e-03
      1.06652945e-01 3.96750301e-01 3.96750301e-01 1.46268845e-01
      5.87031199e-03 3.45134619e-03 1.15289353e-03 5.79594960e-03
      2.20022444e-03 4.43280749e-02 1.64520055e-01 4.14152473e-01
      2.47247756e-01 1.84288789e-02 2.33907551e-02 5.62145608e-03
      1.08914739e-02 6.45356579e-03 3.10070682e-02 6.55512959e-02
      4.14152473e-01 2.77538657e-01 9.35907103e-03 1.37496637e-02
      1.08691296e-02 3.32813361e-03 1.75168109e-03 1.76581070e-02
      1.15430012e-01 4.14152473e-01 2.25499064e-01 1.10686887e-02
      6.66529918e-03 4.15812852e-03 1.80671383e-02 1.10971658e-02
      4.01149131e-02 7.47767538e-02 4.14152473e-01 2.50936806e-01
      5.42790256e-03 6.06904970e-03 2.10342109e-02 4.62193135e-03
      4.78156172e-02 2.13468090e-01 2.21215472e-01 1.26776069e-01
      1.07487306e-01 1.41242798e-02 5.26499655e-03 2.09127855e-03
      1.63557112e-01 2.63294876e-01 2.63294876e-01 2.63294876e-01
      1.93317920e-01 1.64156497e-01 6.07237704e-02 6.77373856e-02
      1.04744233e-01 1.15067931e-03 1.52801163e-03 4.31984402e-02
      1.08809456e-01 1.91235483e-01 2.63294876e-01 1.34785682e-01
      2.32873484e-02 6.32318063e-03 9.94224548e-02 5.00037782e-02
      1.36792377e-01 1.96854785e-01 2.62505710e-01 2.63294876e-01
      2.63294876e-01 2.63294876e-01 2.63294876e-01 3.37468982e-01
      3.37468982e-01 1.67249069e-01 8.16700831e-02 3.74986865e-02
      3.82588729e-02 2.18709502e-02 3.56319137e-02 1.78254247e-01
      3.37468982e-01 1.32696822e-01 8.37586820e-03 1.96048967e-03
      4.31537192e-04 6.83984486e-04 2.96402373e-04 3.63991247e-03
      2.49894336e-01 3.37468982e-01 4.09621820e-02 4.91970927e-02
      5.13818562e-02 4.84070852e-02 7.39908293e-02 7.85032436e-02
      1.65257275e-01 3.37468982e-01 3.37468982e-01 8.04820471e-03
      2.42544874e-03 1.08265376e-03 2.42641731e-03 4.11819085e-04
      7.28483603e-04 1.20508522e-02 3.37468982e-01 4.03330773e-01
      4.83016074e-02 1.51876360e-03 1.22499291e-03 9.61246260e-04
      1.42570038e-03 1.96549227e-03 3.55799799e-03 2.49827474e-01
      4.03330773e-01 6.09134287e-02 1.96706457e-03 1.44747586e-03
      2.42898264e-03 1.85192318e-03 3.17941932e-03 5.81389386e-03
      2.52287805e-01 4.03330773e-01 2.03102287e-02 6.84973435e-04
      5.56814892e-04 2.15774332e-03 6.03386608e-04 1.18177023e-03
      1.14829477e-03 3.73744220e-01 4.03330773e-01 2.17225835e-01
      1.50563074e-02 6.57943543e-04 6.79549947e-03 6.69475528e-04
      1.67607609e-03 1.99506641e-03 1.59704894e-01 2.93753803e-01
      1.94842562e-01 6.22400567e-02 1.44506665e-02 2.89537758e-02
      2.50335019e-02 4.18790318e-02 5.27680330e-02 1.70136869e-01
      2.26977408e-01 2.54712909e-01 2.32057631e-01 1.52986944e-01
      2.93753803e-01 2.39341930e-01 1.51311561e-01 1.09167442e-01
      7.63199553e-02 2.93753803e-01 2.93753803e-01 1.40591264e-01
      1.32568739e-02 1.54112959e-02 1.97348697e-03 1.01597398e-03
      5.94559067e-04 4.40834984e-02 2.03508094e-01 2.93753803e-01
      2.93753803e-01 1.79352611e-01 1.19351260e-01 2.70420238e-02
      2.23302166e-03 1.55480575e-05 7.34265242e-03 3.25518809e-02
      1.27772525e-01 2.53805041e-01 2.92069644e-01 2.92069644e-01
      2.92069644e-01 1.44055426e-01 6.64945617e-02 1.46268709e-02
      8.63207970e-03 2.14409120e-02 1.14114664e-01 2.01669008e-01
      2.92069644e-01 9.22338143e-02 2.86449376e-03 6.72398543e-04
      6.53435942e-03 3.43216918e-02 2.21483305e-01 2.92069644e-01
      2.92069644e-01 2.92069644e-01 9.05885771e-02 2.07734806e-03
      1.58036949e-06 3.20238731e-04 3.62802739e-03 4.49224701e-03
      9.11317393e-02 2.55559266e-01 2.92069644e-01 1.10419333e-01
      1.91473383e-02 8.86584341e-04 4.08852799e-03 3.04228510e-03
      1.98122691e-02 2.00498968e-01 2.91566998e-01 2.91566998e-01
      3.15347724e-02 7.01407297e-03 6.94639329e-03 2.79703597e-03
      3.21783009e-03 2.79728286e-02 2.13461950e-01 2.91566998e-01
      2.91566998e-01 1.50184855e-01 2.84379032e-02 1.88153107e-02
      6.50479400e-04 1.43445248e-03 1.55268256e-02 1.47829860e-01
      2.28502452e-01 2.91566998e-01 1.90139785e-01 1.36392862e-01
      4.84451130e-02 3.46444640e-03 1.94592830e-02 3.70711088e-02
      1.69716060e-01 2.15324566e-01 2.91566998e-01 2.91566998e-01
      2.55668879e-01 1.27457395e-01 1.64352283e-02 1.43632367e-02
      2.20350809e-02 4.88353372e-02 1.74788013e-01 3.55637044e-01
      2.44497254e-01 2.25427262e-02 1.10185677e-02 3.03440657e-03
      1.80183537e-02 1.91115551e-02 3.62468995e-02 1.35000348e-01
      3.55637044e-01 1.68423489e-01 6.98359124e-03 2.13894341e-03
      2.30914317e-02 9.14471820e-02 6.16995953e-02 1.21677101e-01
      2.44431853e-01 3.55637044e-01 3.55637044e-01 1.71843037e-01
      1.03067584e-01 5.02978079e-02 6.12561479e-02 6.15825132e-02
      1.06975406e-01 2.40717933e-01 3.55637044e-01 9.97101888e-02
      2.58597508e-02 4.46754247e-02 4.34319153e-02</_>
    <_>
      5.29579148e-02 1.69741124e-01 2.74720997e-01 3.34188581e-01
      3.34188581e-01 2.76882231e-01 1.09723836e-01 5.50878495e-02
      7.86096677e-02 9.83667225e-02 8.70771706e-02 4.65787761e-02
      3.98388281e-02 2.37439230e-01 5.51776290e-02 4.62863855e-02
      3.65419015e-02 4.91589271e-02 7.56991878e-02 1.30153447e-01
      2.67768919e-01 3.34188581e-01 3.34188581e-01 2.36160740e-01
      8.08447078e-02 6.32973909e-02 1.67038441e-01 7.74867460e-02
      1.01138733e-01 6.34529144e-02 7.49587640e-02 1.82418376e-01
      9.21527743e-02 2.90562622e-02 2.05305554e-02 3.31153609e-02
      1.93634421e-01 2.02160552e-01 4.46650460e-02 3.03047895e-02
      1.10710068e-02 2.23843544e-03 9.91130900e-03 1.68895386e-02
      3.81207317e-02 2.80517370e-01 3.38635772e-01 2.65316635e-01
      4.34004329e-02 4.35254397e-03 2.79127038e-04 1.58687704e-03
      1.49478007e-03 6.04026392e-03 1.31433159e-01 1.63602024e-01
      8.58919993e-02 2.44152620e-01 1.98254287e-01 4.48917001e-02
      6.34061813e-04 5.23410598e-03 1.95548311e-02 1.86813995e-01
      3.38635772e-01 3.38635772e-01 3.38635772e-01 3.38635772e-01
      3.63240205e-02 6.85726218e-06 2.23969309e-05 7.78257090e-04
      1.36798739e-01 2.83013970e-01 7.32723027e-02 5.00349607e-03
      1.29037723e-03 0. 1.04492065e-04 1.72748201e-04 8.74006841e-03
      3.00415605e-01 3.00415605e-01 2.51074303e-02 1.61430158e-03
      2.02076160e-03 0. 6.96613824e-06 4.28726710e-03 1.11531153e-01
      2.06635952e-01 3.00415605e-01 3.00415605e-01 2.27797344e-01
      2.22134575e-01 5.02200536e-02 9.66701563e-03 3.05393361e-04
      3.81740555e-02 3.00415605e-01 3.00415605e-01 2.17860490e-01
      1.36144564e-01 1.59071341e-01 6.18959963e-02 1.78001393e-02
      6.64604381e-02 3.00415605e-01 3.72394145e-01 9.18946043e-02
      2.56473548e-03 0. 1.36825047e-03 0. 0. 9.65825282e-03
      1.70161322e-01 3.72394145e-01 1.99805871e-02 6.30074574e-05 0.
      1.31048751e-03 0. 0. 5.99792739e-03 2.39430234e-01 3.72394145e-01
      1.00097224e-01 2.25478988e-02 7.82635529e-03 8.36878736e-03
      8.02910514e-03 3.19751306e-03 1.47208855e-01 3.72394145e-01
      3.72394145e-01 3.04669957e-03 1.91728919e-04 4.12892878e-05
      4.38433126e-05 2.16684115e-04 4.52555018e-04 1.91144526e-01
      3.72394145e-01 2.80550987e-01 1.49615677e-02 0. 0. 1.30554254e-03
      0. 1.97889331e-05 1.54336579e-02 3.06892723e-01 9.43053514e-02
      2.06242315e-03 0. 0. 8.60974833e-04 2.72561010e-04 1.05188666e-02
      1.01692252e-01 3.64813447e-01 3.37048978e-01 1.65180396e-03
      1.75688372e-04 0. 0. 5.97111939e-05 5.12492086e-04 3.29334974e-01
      3.76275212e-01 1.51384205e-01 7.83640207e-05 1.17125583e-05 0. 0.
      3.50435555e-04 2.66976971e-02 3.76275212e-01 3.76275212e-01
      3.03082224e-02 1.70084764e-03 2.62919872e-04 3.18327366e-04
      4.59250296e-03 3.11015770e-02 1.48624942e-01 2.33257741e-01
      3.09624225e-01 3.65655217e-03 2.42680986e-03 8.70496780e-03
      1.31371338e-02 3.05382479e-02 9.95974690e-02 2.47563988e-01
      1.27177626e-01 4.06155549e-02 1.21544622e-01 0. 0. 1.14767126e-05
      4.96740104e-04 5.19560315e-02 3.17512006e-01 3.44363421e-01
      3.44363421e-01 3.60568278e-02 0. 6.40613027e-04 5.21880761e-03
      4.41504046e-02 2.90854156e-01 3.44363421e-01 3.44363421e-01
      2.27041051e-01 1.70765689e-03 1.23245530e-02 7.65638575e-02
      1.17753759e-01 1.73332512e-01 3.22040260e-01 3.18604559e-01
      8.53344724e-02 8.33125133e-03 1.12847202e-02 5.85169494e-02
      1.13546722e-01 1.47821367e-01 1.80512384e-01 1.50177076e-01
      4.40703370e-02 2.97383056e-03 2.43350631e-03 2.74082692e-03
      2.98817270e-03 1.19691771e-02 7.19353929e-02 3.27388346e-01
      3.27388346e-01 3.27388346e-01 2.42026806e-01 3.77495438e-02
      1.69991050e-02 5.22971228e-02 4.37350199e-02 1.14872001e-01
      3.27388346e-01 3.27388346e-01 1.37548134e-01 2.26132274e-02
      5.11882780e-03 5.50226085e-02 3.89034078e-02 1.53206527e-01
      2.82080829e-01 4.07331616e-01 2.17336163e-01 2.90132817e-02
      8.80205557e-02 1.89833969e-01 1.58695616e-02 3.87374088e-02
      3.47914696e-02 1.25269562e-01 2.26480007e-01 7.30598941e-02
      7.90873263e-03 1.76030230e-02 2.16182973e-02 2.01939736e-02
      3.56928296e-02 1.04361624e-01 4.07331616e-01 4.07331616e-01
      2.49336571e-01 2.94501241e-02 7.42104203e-02 6.49569109e-02
      6.20870851e-03 2.15619095e-02 5.02497256e-02 2.04062179e-01
      2.91238815e-01 7.60305971e-02 2.98968535e-02 2.87144706e-02
      1.66976824e-02 7.57306442e-03 1.38070248e-02 2.07476262e-02
      1.79285809e-01 2.73810357e-01 4.11563963e-02 8.83457134e-04
      1.26581779e-03 1.66337704e-03 1.26795527e-02 1.21206135e-01
      2.55185694e-01 3.80265802e-01 3.80265802e-01 2.43713841e-01
      1.51679590e-02 0. 0. 7.45249854e-04 2.91648926e-03 1.26230326e-02
      1.04534842e-01 3.20362896e-01 1.37563661e-01 1.46900397e-02
      6.47519715e-03 1.52946287e-03 0. 1.05200044e-03 1.26402248e-02
      1.11156330e-01 3.80265802e-01 3.80265802e-01 1.52337819e-01
      8.14587250e-03 0. 4.82696518e-02 1.21089794e-01 1.66640028e-01
      2.00834662e-01 2.58240581e-01 2.05498874e-01 9.76971611e-02
      5.29866032e-02 1.67559553e-02 2.37776071e-01 1.47530898e-01
      1.19410805e-01 1.17394902e-01 2.14026108e-01 1.77587971e-01
      1.52988657e-01 2.43264183e-01 2.58240581e-01 2.77872838e-04
      1.39639829e-03 8.81007779e-03 3.65543365e-02 2.51963705e-01
      2.58240581e-01 2.52573818e-01 1.63398236e-01 1.65295135e-02
      1.46337943e-02 3.18302074e-03 7.79245188e-03 1.97167378e-02
      7.93772042e-02 1.68577179e-01 2.58240581e-01 2.58240581e-01
      2.58240581e-01 2.29225531e-01 3.45569737e-02 1.78370792e-02
      8.20074882e-03 1.35592781e-02 2.20823400e-02 2.97578778e-02
      2.07751378e-01 3.66919786e-01 2.26060659e-01 8.37569649e-04
      2.44980794e-03 1.05347647e-03 6.61995364e-05 5.39418601e-04
      1.58522720e-03 1.88663170e-01 3.66919786e-01 3.10448371e-02
      1.53825921e-03 2.53975741e-03 1.02349941e-03 3.65408324e-03
      1.39048463e-02 5.97554632e-02 3.66919786e-01 3.66919786e-01
      9.26665068e-02 1.04541378e-03 2.82422686e-03 1.32183672e-03
      1.52768171e-05 2.45190284e-04 4.27552219e-03 3.52514982e-01
      3.66919786e-01 1.52442724e-01 8.69604410e-04 3.64224100e-03
      1.42759783e-03 0. 1.38847250e-03 1.61130668e-03 2.51281232e-01
      3.83850962e-01 1.34106994e-01 2.71909474e-03 1.81889208e-03
      5.70316974e-04 1.32125388e-05 2.53889733e-03 1.05138384e-02
      3.83850962e-01 3.83850962e-01 1.88598499e-01 1.66895776e-03
      4.71644942e-03 1.98497693e-03 0. 1.84547855e-03 2.18218751e-03
      1.08606435e-01 3.83850962e-01 3.12704921e-01 1.54892523e-02
      2.62135360e-03 1.32506993e-03 5.72543358e-05 3.42345657e-03
      3.00843082e-03 9.74033475e-02 3.83850962e-01 8.57811570e-02
      3.90215707e-03 9.90298018e-03 6.77009532e-03 1.12362513e-02
      2.85146385e-02 1.11692712e-01 2.67456949e-01 2.67456949e-01
      2.64569502e-02 2.39688857e-03 2.41588242e-02 3.61543223e-02
      9.39436555e-02 2.22557336e-01 2.67456949e-01 2.67456949e-01
      1.80207953e-01 2.50218779e-01 9.89605412e-02 1.74874648e-01
      3.87260206e-02 2.64343452e-02 2.63359193e-02 6.39313161e-02
      1.79934710e-01 2.67456949e-01 9.01886448e-02 1.20905921e-01
      2.67456949e-01 2.67456949e-01 2.42488235e-01 2.40481466e-01
      2.12815568e-01 1.91165522e-01 1.36659488e-01 1.23101135e-03
      1.06077315e-03 2.65319813e-02 1.08292714e-01 3.15754831e-01
      3.15754831e-01 3.15754831e-01 1.51348680e-01 2.53387857e-02
      1.98164815e-03 3.25594773e-03 5.89896832e-03 5.34026101e-02
      2.09447637e-01 1.19087152e-01 3.68705466e-02 5.99645637e-03
      1.45313563e-03 4.46204067e-04 5.74694499e-02 3.15754831e-01
      3.15754831e-01 3.15754831e-01 3.15754831e-01 2.69348353e-01
      9.95669290e-02 1.19018489e-02 1.06728508e-03 2.11420516e-03
      1.15500828e-02 1.67565301e-01 2.74748832e-01 1.03900492e-01
      1.36249512e-02 3.46335908e-03 1.51986047e-03 8.54624808e-02
      6.69083595e-02 6.37827814e-02 2.89003164e-01 3.12720001e-01
      1.88424468e-01 4.95112836e-02 1.54155552e-01 2.11694703e-01
      7.31132086e-03 1.25391604e-02 2.53229048e-02 7.41327107e-02
      1.56489730e-01 1.11035578e-01 4.61819731e-02 4.33607660e-02
      2.35728789e-02 1.55257210e-01 5.28597943e-02 4.39159088e-02
      3.12720001e-01 3.12720001e-01 2.70250648e-01 1.26823857e-01
      3.12720001e-01 3.12720001e-01 1.74933746e-02 9.63474903e-03
      1.20300781e-02 1.05714336e-01 2.78008282e-01 1.92301288e-01
      5.42109869e-02 7.38294721e-02 4.40719090e-02 2.64942501e-04
      1.68678071e-03 7.31417770e-03 3.03279515e-02 2.61477023e-01
      3.35264862e-01 3.41526680e-02 1.50871314e-02 3.50921531e-03 0. 0.
      2.24690360e-04 8.05712026e-03 3.37414593e-01 3.37414593e-01
      3.37414593e-01 5.62485494e-02 0. 9.70249646e-04 7.75849796e-04
      8.94907163e-04 5.48939174e-03 2.35046461e-01 3.23235154e-01
      3.51608843e-02 7.83398375e-03 4.03321907e-03 0. 0. 0.
      1.97532238e-03 2.70783752e-01 3.37414593e-01 3.37414593e-01
      8.12375695e-02 2.37114669e-04 0. 0. 0. 1.02892052e-04
      8.50699469e-02 3.20185184e-01 3.20185184e-01 3.02067310e-01
      1.26856398e-02 1.10722454e-02 0. 0. 0. 3.00703128e-03
      7.19569400e-02 3.20185184e-01 3.20185184e-01 3.20185184e-01
      3.35836921e-06 0. 0. 0. 2.75884531e-02 1.44607484e-01
      3.20185184e-01 2.25982696e-01 4.71831392e-03 9.76944063e-03 0. 0.
      0. 3.31473449e-04 1.05542410e-02 2.69913018e-01 3.20185184e-01
      1.71452656e-01 2.06863061e-02 0. 0. 0. 0. 2.35417672e-03
      6.13543019e-02 3.52845520e-01 3.52845520e-01 1.88125476e-01
      2.50429264e-04 4.19384131e-04 2.39372777e-04 0. 0. 1.15284985e-02
      3.52845520e-01 3.52845520e-01 5.01896739e-02 0. 0. 0. 0.
      1.47926752e-04 4.28206511e-02 3.43363345e-01 3.52845520e-01
      2.75467217e-01 0. 0. 0. 0. 0. 5.69640193e-03 1.07643031e-01
      3.52845520e-01 3.10072154e-01 8.26267991e-04 6.89241046e-04
      3.20036459e-04 0. 2.94149417e-04 1.81024766e-03 6.73815683e-02
      3.53376985e-01 3.53376985e-01 4.55512926e-02 2.65958160e-03
      3.84964253e-04 2.24530413e-05 5.39707078e-04 5.45929361e-04
      1.17322560e-02 3.53376985e-01 3.53376985e-01 6.88312808e-03 0. 0.
      0. 0. 7.32484623e-04 8.96464288e-03 3.53376985e-01 3.53376985e-01
      1.38627499e-01 8.78756866e-03 9.66191510e-05 0. 0. 0.
      3.02987243e-03 3.53376985e-01 2.88686484e-01 2.81452060e-01
      2.45496973e-01 3.76491509e-02 8.35522637e-03 6.04776479e-03
      6.73061656e-03 8.14247876e-03 2.88686484e-01 1.56832829e-01
      2.88686484e-01 2.88686484e-01 2.88686484e-01 1.18346699e-01
      5.58996126e-02 2.01751254e-02 5.28956298e-03 1.06792100e-01
      2.88686484e-01 2.88686484e-01 1.26297638e-01 9.67075769e-03 0. 0.
      0. 7.92650098e-04 1.48475677e-01 7.94933885e-02 2.88686484e-01
      2.88686484e-01 8.31995681e-02 6.87126210e-03 7.04612059e-04 0.
      4.52515786e-04 3.14726569e-02 1.66688033e-03 1.84914663e-01
      3.61949563e-01 3.61949563e-01 3.61949563e-01 1.94983497e-01
      3.26729864e-02 3.34202615e-03 1.44621031e-03 4.03016759e-03
      1.15080737e-02 4.96587791e-02 2.89157331e-01 2.64107317e-01
      5.30653633e-02 5.14736213e-03 3.99261108e-03 4.93546110e-03
      3.34492140e-02 2.72209287e-01 3.61949563e-01 3.25494349e-01
      1.20136417e-01 1.63163394e-02 3.88840749e-03 5.63041680e-03
      2.47297995e-02 1.61133315e-02 2.79707592e-02 6.32862374e-02
      1.33971006e-01 1.35415569e-01 2.46999189e-02 2.46271584e-02
      2.11452059e-02 2.60611307e-02 4.16357107e-02 1.10332184e-02
      2.34786402e-02 3.60395938e-01 3.60395938e-01 1.55558705e-01
      5.72620407e-02 1.75485894e-01 1.85346052e-01 8.67090654e-03
      2.96004862e-03 8.13178997e-03 1.81785285e-01 3.05766493e-01
      1.17857791e-01 3.15183587e-02 2.96668839e-02 1.69346202e-02
      1.00464627e-01 3.06446195e-01 2.13060573e-01 3.60395938e-01
      3.60395938e-01 4.03928682e-02 1.07858442e-02 1.01490635e-02
      1.65510159e-02 7.86555745e-03 1.16410749e-02 2.78844219e-02
      1.57397687e-01 2.40248173e-01 5.79095148e-02 2.41121911e-02
      9.98175517e-03 7.82829430e-03 2.16975855e-03 5.85672737e-04
      2.07375945e-03 1.27435615e-02 3.03259820e-01 3.40727180e-01
      8.72564688e-02 7.71857100e-03 4.65611788e-03 1.04497280e-03 0. 0.
      4.25588153e-03 3.02601844e-01 3.40727180e-01 3.40727180e-01
      5.87086864e-02 5.22860512e-03 4.25216230e-03 1.92227599e-03
      6.99005276e-03 1.45659875e-02 2.19190404e-01 3.40727180e-01
      1.20209366e-01 6.78247260e-03 4.77368757e-03 8.87734629e-03 0. 0.
      2.43366277e-03 1.91516653e-01 3.40727180e-01 3.40727180e-01
      6.88973740e-02 2.78310720e-02 4.90561360e-03 0. 0. 0.
